{"learner":{"attributes":{"scikit_learn":"{\"_estimator_type\": \"classifier\"}"},"feature_names":["elo_diff","striker_score_diff_r3","striker_score_diff_r5","grappler_score_diff_r3","grappler_score_diff_r5","sig_str_acc_diff","str_def_diff","splm_diff","sapm_diff","kd_diff","td_acc_diff","td_def_diff","ctrl_diff","sub_att_diff","reach_diff","height_diff","age_diff","win_streak_diff","recent_form_diff","days_since_diff","finish_rate_diff","durability_diff","chaos_index_r","chaos_index_b","chaos_combined","ko_layoff_r","ko_layoff_b","style_matchup","stance_matchup","title_fight_flag","wins_diff","losses_diff"],"feature_types":["float","float","float","float","float","float","int","float","float","float","float","int","float","float","float","float","float","float","float","float","float","float","float","float","float","float","float","int","int","int","int","int"],"gradient_booster":{"model":{"cats":{"enc":[],"feature_segments":[],"sorted_idx":[]},"gbtree_model_param":{"num_parallel_tree":"1","num_trees":"755"},"iteration_indptr":[0,1,2,3,4,5,6,7,8,9,10,11,12,13,14,15,16,17,18,19,20,21,22,23,24,25,26,27,28,29,30,31,32,33,34,35,36,37,38,39,40,41,42,43,44,45,46,47,48,49,50,51,52,53,54,55,56,57,58,59,60,61,62,63,64,65,66,67,68,69,70,71,72,73,74,75,76,77,78,79,80,81,82,83,84,85,86,87,88,89,90,91,92,93,94,95,96,97,98,99,100,101,102,103,104,105,106,107,108,109,110,111,112,113,114,115,116,117,118,119,120,121,122,123,124,125,126,127,128,129,130,131,132,133,134,135,136,137,138,139,140,141,142,143,144,145,146,147,148,149,150,151,152,153,154,155,156,157,158,159,160,161,162,163,164,165,166,167,168,169,170,171,172,173,174,175,176,177,178,179,180,181,182,183,184,185,186,187,188,189,190,191,192,193,194,195,196,197,198,199,200,201,202,203,204,205,206,207,208,209,210,211,212,213,214,215,216,217,218,219,220,221,222,223,224,225,226,227,228,229,230,231,232,233,234,235,236,237,238,239,240,241,242,243,244,245,246,247,248,249,250,251,252,253,254,255,256,257,258,259,260,261,262,263,264,265,266,267,268,269,270,271,272,273,274,275,276,277,278,279,280,281,282,283,284,285,286,287,288,289,290,291,292,293,294,295,296,297,298,299,300,301,302,303,304,305,306,307,308,309,310,311,312,313,314,315,316,317,318,319,320,321,322,323,324,325,326,327,328,329,330,331,332,333,334,335,336,337,338,339,340,341,342,343,344,345,346,347,348,349,350,351,352,353,354,355,356,357,358,359,360,361,362,363,364,365,366,367,368,369,370,371,372,373,374,375,376,377,378,379,380,381,382,383,384,385,386,387,388,389,390,391,392,393,394,395,396,397,398,399,400,401,402,403,404,405,406,407,408,409,410,411,412,413,414,415,416,417,418,419,420,421,422,423,424,425,426,427,428,429,430,431,432,433,434,435,436,437,438,439,440,441,442,443,444,445,446,447,448,449,450,451,452,453,454,455,456,457,458,459,460,461,462,463,464,465,466,467,468,469,470,471,472,473,474,475,476,477,478,479,480,481,482,483,484,485,486,487,488,489,490,491,492,493,494,495,496,497,498,499,500,501,502,503,504,505,506,507,508,509,510,511,512,513,514,515,516,517,518,519,520,521,522,523,524,525,526,527,528,529,530,531,532,533,534,535,536,537,538,539,540,541,542,543,544,545,546,547,548,549,550,551,552,553,554,555,556,557,558,559,560,561,562,563,564,565,566,567,568,569,570,571,572,573,574,575,576,577,578,579,580,581,582,583,584,585,586,587,588,589,590,591,592,593,594,595,596,597,598,599,600,601,602,603,604,605,606,607,608,609,610,611,612,613,614,615,616,617,618,619,620,621,622,623,624,625,626,627,628,629,630,631,632,633,634,635,636,637,638,639,640,641,642,643,644,645,646,647,648,649,650,651,652,653,654,655,656,657,658,659,660,661,662,663,664,665,666,667,668,669,670,671,672,673,674,675,676,677,678,679,680,681,682,683,684,685,686,687,688,689,690,691,692,693,694,695,696,697,698,699,700,701,702,703,704,705,706,707,708,709,710,711,712,713,714,715,716,717,718,719,720,721,722,723,724,725,726,727,728,729,730,731,732,733,734,735,736,737,738,739,740,741,742,743,744,745,746,747,748,749,750,751,752,753,754,755],"tree_info":[0,0,0,0,0,0,0,0,0,0,0,0,0,0,0,0,0,0,0,0,0,0,0,0,0,0,0,0,0,0,0,0,0,0,0,0,0,0,0,0,0,0,0,0,0,0,0,0,0,0,0,0,0,0,0,0,0,0,0,0,0,0,0,0,0,0,0,0,0,0,0,0,0,0,0,0,0,0,0,0,0,0,0,0,0,0,0,0,0,0,0,0,0,0,0,0,0,0,0,0,0,0,0,0,0,0,0,0,0,0,0,0,0,0,0,0,0,0,0,0,0,0,0,0,0,0,0,0,0,0,0,0,0,0,0,0,0,0,0,0,0,0,0,0,0,0,0,0,0,0,0,0,0,0,0,0,0,0,0,0,0,0,0,0,0,0,0,0,0,0,0,0,0,0,0,0,0,0,0,0,0,0,0,0,0,0,0,0,0,0,0,0,0,0,0,0,0,0,0,0,0,0,0,0,0,0,0,0,0,0,0,0,0,0,0,0,0,0,0,0,0,0,0,0,0,0,0,0,0,0,0,0,0,0,0,0,0,0,0,0,0,0,0,0,0,0,0,0,0,0,0,0,0,0,0,0,0,0,0,0,0,0,0,0,0,0,0,0,0,0,0,0,0,0,0,0,0,0,0,0,0,0,0,0,0,0,0,0,0,0,0,0,0,0,0,0,0,0,0,0,0,0,0,0,0,0,0,0,0,0,0,0,0,0,0,0,0,0,0,0,0,0,0,0,0,0,0,0,0,0,0,0,0,0,0,0,0,0,0,0,0,0,0,0,0,0,0,0,0,0,0,0,0,0,0,0,0,0,0,0,0,0,0,0,0,0,0,0,0,0,0,0,0,0,0,0,0,0,0,0,0,0,0,0,0,0,0,0,0,0,0,0,0,0,0,0,0,0,0,0,0,0,0,0,0,0,0,0,0,0,0,0,0,0,0,0,0,0,0,0,0,0,0,0,0,0,0,0,0,0,0,0,0,0,0,0,0,0,0,0,0,0,0,0,0,0,0,0,0,0,0,0,0,0,0,0,0,0,0,0,0,0,0,0,0,0,0,0,0,0,0,0,0,0,0,0,0,0,0,0,0,0,0,0,0,0,0,0,0,0,0,0,0,0,0,0,0,0,0,0,0,0,0,0,0,0,0,0,0,0,0,0,0,0,0,0,0,0,0,0,0,0,0,0,0,0,0,0,0,0,0,0,0,0,0,0,0,0,0,0,0,0,0,0,0,0,0,0,0,0,0,0,0,0,0,0,0,0,0,0,0,0,0,0,0,0,0,0,0,0,0,0,0,0,0,0,0,0,0,0,0,0,0,0,0,0,0,0,0,0,0,0,0,0,0,0,0,0,0,0,0,0,0,0,0,0,0,0,0,0,0,0,0,0,0,0,0,0,0,0,0,0,0,0,0,0,0,0,0,0,0,0,0,0,0,0,0,0,0,0,0,0,0,0,0,0,0,0,0,0,0,0,0,0,0,0,0,0,0,0,0,0,0,0,0,0,0,0,0,0,0,0,0,0,0,0,0,0,0,0,0,0,0,0,0,0,0,0,0,0,0,0,0,0,0,0,0,0,0,0,0,0,0,0,0,0,0,0,0,0,0,0,0,0,0,0,0,0,0,0,0,0,0,0,0,0,0,0,0,0,0,0,0,0,0,0,0,0,0,0,0,0,0,0,0,0,0,0,0,0,0,0,0,0,0],"trees":[{"base_weights":[-1.8945964E-2,-9.2419314E-1,7.421756E-1,-1.1680857E0,2.6201952E-1,-9.0324855E-1,9.629023E-1,-1.3539582E0,5.4451543E-1,-5.9476554E-2,6.020472E-1,-1.6288972E-2,-1.8090638E-3,-0E0,1.16092E0,-2.3017313E-2,6.849411E-3,-0E0,1.28904E-2,-4.932977E-3,5.8741507E-4,-0E0,1.4403645E-2,-6.4621214E-3,3.2094787E-3,1.0025432E-2,2.2853106E-2],"categories":[],"categories_nodes":[],"categories_segments":[],"categories_sizes":[],"default_left":[0,0,0,0,0,0,0,0,0,0,0,0,0,0,0,0,0,0,0,0,0,0,0,0,0,0,0],"id":0,"left_children":[1,3,5,7,9,11,13,15,17,19,21,-1,-1,23,25,-1,-1,-1,-1,-1,-1,-1,-1,-1,-1,-1,-1],"loss_changes":[5.9200323E2,1.1825952E2,1.7079068E2,1.09938446E2,9.431979E0,2.4364471E-1,8.28537E1,4.9510986E1,4.355116E0,1.7948529E0,4.141366E0,0E0,0E0,6.5512857E0,3.903784E1,0E0,0E0,0E0,0E0,0E0,0E0,0E0,0E0,0E0,0E0,0E0,0E0],"parents":[2147483647,0,0,1,1,2,2,3,3,4,4,5,5,6,6,7,7,8,8,9,9,10,10,13,13,14,14],"right_children":[2,4,6,8,10,12,14,16,18,20,22,-1,-1,24,26,-1,-1,-1,-1,-1,-1,-1,-1,-1,-1,-1,-1],"split_conditions":[0E0,1E0,0E0,1E0,5.4378334E1,4.6666667E-1,0E0,2.032E1,0E0,-1E1,1E0,-1.6288972E-2,-1.8090638E-3,1.1E1,1E1,-2.3017313E-2,6.849411E-3,-0E0,1.28904E-2,-4.932977E-3,5.8741507E-4,-0E0,1.4403645E-2,-6.4621214E-3,3.2094787E-3,1.0025432E-2,2.2853106E-2],"split_indices":[5,13,9,9,2,18,13,14,30,5,30,0,0,5,5,0,0,0,0,0,0,0,0,0,0,0,0],"split_type":[0,0,0,0,0,0,0,0,0,0,0,0,0,0,0,0,0,0,0,0,0,0,0,0,0,0,0],"sum_hessian":[8.534776E2,3.9189633E2,4.615813E2,3.2776978E2,6.412654E1,5.167666E1,4.0990463E2,2.9814395E2,2.962583E1,2.8176659E1,3.5949883E1,4.0363983E1,1.1312677E1,6.71718E1,3.4273282E2,2.874334E2,1.0710546E1,1.0608175E1,1.9017654E1,1.7522985E1,1.0653673E1,1.6006042E1,1.994384E1,2.755154E1,3.9620262E1,1.21014694E2,2.2171814E2],"tree_param":{"num_deleted":"0","num_feature":"32","num_nodes":"27","size_leaf_vector":"1"}},{"base_weights":[-6.140793E-3,-8.845139E-1,7.199385E-1,-1.154051E0,3.6456725E-1,-8.758241E-1,9.240707E-1,-1.3377938E0,5.74167E-1,-0E0,1.5919594E-2,-1.8408898E-2,-0E0,4.6745852E-1,1.3327477E0,-2.2811914E-2,2.7345102E-3,-0E0,1.315809E-2,-5.0185844E-3,2.770991E-3,-4.879643E-3,1.0656333E-2,6.0173487E-3,2.3687672E-2],"categories":[],"categories_nodes":[],"categories_segments":[],"categories_sizes":[],"default_left":[0,0,0,0,0,0,0,0,0,0,0,0,0,0,0,0,0,0,0,0,0,0,0,0,0],"id":1,"left_children":[1,3,5,7,9,11,13,15,17,19,-1,-1,-1,21,23,-1,-1,-1,-1,-1,-1,-1,-1,-1,-1],"loss_changes":[5.458797E2,1.3507785E2,1.5379108E2,1.07398285E2,1.8064571E1,1.1506882E1,6.9282745E1,4.3586426E1,2.9069662E0,2.8070936E0,0E0,0E0,0E0,3.307418E1,2.1392914E1,0E0,0E0,0E0,0E0,0E0,0E0,0E0,0E0,0E0,0E0],"parents":[2147483647,0,0,1,1,2,2,3,3,4,4,5,5,6,6,7,7,8,8,9,9,13,13,14,14],"right_children":[2,4,6,8,10,12,14,16,18,20,-1,-1,-1,22,24,-1,-1,-1,-1,-1,-1,-1,-1,-1,-1],"split_conditions":[0E0,1E0,0E0,1E0,2.3E1,1.7E1,1.4E1,1.778E1,1E0,-2.4E-1,1.5919594E-2,-1.8408898E-2,-0E0,0E0,0E0,-2.2811914E-2,2.7345102E-3,-0E0,1.315809E-2,-5.0185844E-3,2.770991E-3,-4.879643E-3,1.0656333E-2,6.0173487E-3,2.3687672E-2],"split_indices":[5,13,9,9,10,10,5,14,30,7,0,0,0,13,13,0,0,0,0,0,0,0,0,0,0],"split_type":[0,0,0,0,0,0,0,0,0,0,0,0,0,0,0,0,0,0,0,0,0,0,0,0,0],"sum_hessian":[8.5019855E2,3.869022E2,4.6329636E2,3.2090176E2,6.6000404E1,4.9532043E1,4.137643E2,2.9254947E2,2.8352318E1,4.0863724E1,2.513668E1,3.6509712E1,1.3022333E1,2.0224629E2,2.1151802E2,2.793168E2,1.3232668E1,1.139224E1,1.696008E1,1.8795431E1,2.2068295E1,3.7005955E1,1.6524033E2,3.251781E1,1.7900021E2],"tree_param":{"num_deleted":"0","num_feature":"32","num_nodes":"25","size_leaf_vector":"1"}},{"base_weights":[8.008719E-3,-6.4212155E-1,9.3930215E-1,-8.288785E-1,9.3324006E-1,-6.5528506E-1,1.127182E0,-1.113057E0,1.2401887E-1,4.163825E-4,1.9304011E-2,-1.5321744E-2,-0E0,4.4516063E-1,1.3204403E0,-2.6508933E-2,-1.3665292E-2,-1.2871439E-2,6.4243726E-3,-1.2884502E-3,1.0807551E-2,1.3348116E-2,2.386851E-2],"categories":[],"categories_nodes":[],"categories_segments":[],"categories_sizes":[],"default_left":[0,0,0,0,0,0,0,0,0,0,0,0,0,0,0,0,0,0,0,0,0,0,0],"id":2,"left_children":[1,3,5,7,9,11,13,15,17,-1,-1,-1,-1,19,21,-1,-1,-1,-1,-1,-1,-1,-1],"loss_changes":[5.172985E2,1.484298E2,1.0927765E2,1.2600101E2,7.9956474E0,8.481052E0,3.3852875E1,3.6364105E1,2.5526857E1,0E0,0E0,0E0,0E0,1.1843823E1,8.1822815E0,0E0,0E0,0E0,0E0,0E0,0E0,0E0,0E0],"parents":[2147483647,0,0,1,1,2,2,3,3,4,4,5,5,6,6,7,7,8,8,13,13,14,14],"right_children":[2,4,6,8,10,12,14,16,18,-1,-1,-1,-1,20,22,-1,-1,-1,-1,-1,-1,-1,-1],"split_conditions":[6E0,1E0,0E0,2.8E1,0E0,2.1E1,-7E0,0E0,0E0,4.163825E-4,1.9304011E-2,-1.5321744E-2,-0E0,-4E0,1.4E1,-2.6508933E-2,-1.3665292E-2,-1.2871439E-2,6.4243726E-3,-1.2884502E-3,1.0807551E-2,1.3348116E-2,2.386851E-2],"split_indices":[5,9,9,10,10,10,10,9,9,0,0,0,0,30,5,0,0,0,0,0,0,0,0],"split_type":[0,0,0,0,0,0,0,0,0,0,0,0,0,0,0,0,0,0,0,0,0,0,0],"sum_hessian":[8.477774E2,4.9726373E2,3.5051364E2,4.4773865E2,4.952508E1,3.4175777E1,3.1633786E2,3.476743E2,1.0006437E2,1.5254665E1,3.4270416E1,2.4068054E1,1.0107724E1,7.594979E1,2.4038806E2,1.039646E2,2.437097E2,1.8794601E1,8.126977E1,1.8467089E1,5.7482704E1,7.139381E1,1.6899426E2],"tree_param":{"num_deleted":"0","num_feature":"32","num_nodes":"23","size_leaf_vector":"1"}},{"base_weights":[-0E0,-8.380339E-1,6.9933295E-1,-1.0942533E0,3.049785E-1,-9.087741E-1,9.0902495E-1,-1.2742107E0,5.8683777E-1,-7.283739E-2,1.7750695E-2,-1.8520921E-2,-0E0,1.7468235E-1,1.1669247E0,-2.1722438E-2,3.467898E-3,1.3364182E-2,-0E0,-6.927182E-3,7.564634E-4,-1.1003698E-3,1.1544139E-2,3.9515933E-3,2.0776942E-2],"categories":[],"categories_nodes":[],"categories_segments":[],"categories_sizes":[],"default_left":[0,0,0,0,0,0,0,0,0,0,0,0,0,0,0,0,0,0,0,0,0,0,0,0,0],"id":3,"left_children":[1,3,5,7,9,11,13,15,17,19,-1,-1,-1,21,23,-1,-1,-1,-1,-1,-1,-1,-1,-1,-1],"loss_changes":[5.0225385E2,1.1817929E2,1.5916054E2,1.0189462E2,2.5577034E1,1.2620235E1,7.3107574E1,4.0756012E1,2.5973825E0,3.551751E0,0E0,0E0,0E0,1.7847244E1,2.9561035E1,0E0,0E0,0E0,0E0,0E0,0E0,0E0,0E0,0E0,0E0],"parents":[2147483647,0,0,1,1,2,2,3,3,4,4,5,5,6,6,7,7,8,8,9,9,13,13,14,14],"right_children":[2,4,6,8,10,12,14,16,18,20,-1,-1,-1,22,24,-1,-1,-1,-1,-1,-1,-1,-1,-1,-1],"split_conditions":[0E0,1E0,0E0,1E0,3E1,3.1E1,-5E0,1.778E1,9.007529E-1,-5.8E-1,1.7750695E-2,-1.8520921E-2,-0E0,5E0,0E0,-2.1722438E-2,3.467898E-3,1.3364182E-2,-0E0,-6.927182E-3,7.564634E-4,-1.1003698E-3,1.1544139E-2,3.9515933E-3,2.0776942E-2],"split_indices":[5,13,9,9,10,10,10,14,16,7,0,0,0,30,13,0,0,0,0,0,0,0,0,0,0],"split_type":[0,0,0,0,0,0,0,0,0,0,0,0,0,0,0,0,0,0,0,0,0,0,0,0,0],"sum_hessian":[8.519622E2,3.8814178E2,4.6382043E2,3.1988718E2,6.825461E1,5.0485954E1,4.133345E2,2.91531E2,2.8356163E1,4.46337E1,2.362091E1,3.9747997E1,1.0737955E1,1.1232499E2,3.010095E2,2.7906052E2,1.2470497E1,1.6575058E1,1.1781106E1,1.7617699E1,2.7016003E1,7.4265175E1,3.8059814E1,4.169336E1,2.5931613E2],"tree_param":{"num_deleted":"0","num_feature":"32","num_nodes":"25","size_leaf_vector":"1"}},{"base_weights":[2.7707454E-3,-8.030551E-1,6.590985E-1,-9.258417E-1,2.1605995E-2,-8.0405927E-1,8.4312236E-1,-1.0688852E0,5.467164E-1,-1.7836044E-2,-0E0,3.756483E-1,1.2714595E0,-2.078728E-2,-1.4537675E-3,-0E0,1.2212412E-2,2.1532213E-3,1.9115055E-2,6.655137E-3,2.313541E-2],"categories":[],"categories_nodes":[],"categories_segments":[],"categories_sizes":[],"default_left":[0,0,0,0,0,0,0,0,0,0,0,0,0,0,0,0,0,0,0,0,0],"id":4,"left_children":[1,3,5,7,-1,9,11,13,15,-1,-1,17,19,-1,-1,-1,-1,-1,-1,-1,-1],"loss_changes":[4.5102417E2,1.0189578E2,1.2916101E2,7.988547E1,0E0,1.16883545E1,7.741916E1,6.908383E1,2.522027E0,0E0,0E0,3.6001442E1,2.3325226E1,0E0,0E0,0E0,0E0,0E0,0E0,0E0,0E0],"parents":[2147483647,0,0,1,1,2,2,3,3,5,5,6,6,7,7,8,8,11,11,12,12],"right_children":[2,4,6,8,-1,10,12,14,16,-1,-1,18,20,-1,-1,-1,-1,-1,-1,-1,-1],"split_conditions":[0E0,3.302E1,0E0,1E0,2.1605995E-2,1.7E1,1.4E1,2.6E1,0E0,-1.7836044E-2,-0E0,1E0,-1.6E1,-2.078728E-2,-1.4537675E-3,-0E0,1.2212412E-2,2.1532213E-3,1.9115055E-2,6.655137E-3,2.313541E-2],"split_indices":[5,14,9,9,0,10,5,10,30,0,0,9,10,0,0,0,0,0,0,0,0],"split_type":[0,0,0,0,0,0,0,0,0,0,0,0,0,0,0,0,0,0,0,0,0],"sum_hessian":[8.490841E2,3.7827756E2,4.7080652E2,3.6081534E2,1.7462236E1,4.9381794E1,4.2142474E2,3.3183167E2,2.8983656E1,3.406559E1,1.5316201E1,2.0790822E2,2.1351651E2,2.652053E2,6.662639E1,1.0879148E1,1.8104507E1,1.6627094E2,4.1637276E1,4.087035E1,1.7264616E2],"tree_param":{"num_deleted":"0","num_feature":"32","num_nodes":"21","size_leaf_vector":"1"}},{"base_weights":[-1.9903253E-3,-8.3073896E-1,6.828826E-1,-9.8610073E-1,7.106185E-1,-8.81751E-1,8.924435E-1,-1.2287586E0,-6.4065563E-3,-0E0,1.6484182E-2,-1.7449453E-2,-0E0,1.700655E-1,1.1584092E0,-2.0701531E-2,1.5085832E-3,-1.47540765E-2,3.2439744E-3,-1.406892E-3,1.1709139E-2,1.1847632E-2,2.3422267E-2],"categories":[],"categories_nodes":[],"categories_segments":[],"categories_sizes":[],"default_left":[0,0,0,0,0,0,0,0,0,0,0,0,0,0,0,0,0,0,0,0,0,0,0],"id":5,"left_children":[1,3,5,7,9,11,13,15,17,-1,-1,-1,-1,19,21,-1,-1,-1,-1,-1,-1,-1,-1],"loss_changes":[4.87345E2,9.624692E1,1.5504362E2,8.0374115E1,6.029026E0,7.921829E0,7.4220184E1,2.8614563E1,1.7821552E1,0E0,0E0,0E0,0E0,1.9731915E1,2.7040863E1,0E0,0E0,0E0,0E0,0E0,0E0,0E0,0E0],"parents":[2147483647,0,0,1,1,2,2,3,3,4,4,5,5,6,6,7,7,8,8,13,13,14,14],"right_children":[2,4,6,8,10,12,14,16,18,-1,-1,-1,-1,20,22,-1,-1,-1,-1,-1,-1,-1,-1],"split_conditions":[0E0,1E0,0E0,2.8E1,0E0,2.6E1,-5E0,2.032E1,0E0,-0E0,1.6484182E-2,-1.7449453E-2,-0E0,5E0,1.4E1,-2.0701531E-2,1.5085832E-3,-1.47540765E-2,3.2439744E-3,-1.406892E-3,1.1709139E-2,1.1847632E-2,2.3422267E-2],"split_indices":[5,9,9,10,30,10,10,14,9,0,0,0,0,30,5,0,0,0,0,0,0,0,0],"split_type":[0,0,0,0,0,0,0,0,0,0,0,0,0,0,0,0,0,0,0,0,0,0,0],"sum_hessian":[8.5289056E2,3.88212E2,4.646786E2,3.556975E2,3.2514473E1,5.1829735E1,4.1284888E2,2.814695E2,7.422802E1,1.254328E1,1.9971193E1,3.9841965E1,1.1987769E1,1.1601892E2,2.9682996E2,2.7144775E2,1.0021736E1,1.5710337E1,5.8517685E1,7.6159966E1,3.985895E1,1.3338002E2,1.6344992E2],"tree_param":{"num_deleted":"0","num_feature":"32","num_nodes":"23","size_leaf_vector":"1"}},{"base_weights":[-0E0,-7.899025E-1,6.650639E-1,-1.0450648E0,3.06302E-1,-8.533966E-1,8.730874E-1,-1.2098563E0,4.4496897E-1,-5.165297E-2,1.6454045E-2,-1.8025156E-2,-0E0,2.1832241E-1,1.0989113E0,-2.2074496E-2,-4.6758526E-3,-0E0,1.2187309E-2,-6.874211E-3,1.9304293E-3,-4.616562E-3,8.314443E-3,8.92481E-3,2.0936284E-2],"categories":[],"categories_nodes":[],"categories_segments":[],"categories_sizes":[],"default_left":[0,0,0,0,0,0,0,0,0,0,0,0,0,0,0,0,0,0,0,0,0,0,0,0,0],"id":6,"left_children":[1,3,5,7,9,11,13,15,17,19,-1,-1,-1,21,23,-1,-1,-1,-1,-1,-1,-1,-1,-1,-1],"loss_changes":[4.45688E2,1.11512344E2,1.4819969E2,8.188574E1,2.2394331E1,8.651424E0,5.514386E1,3.6991943E1,5.866448E0,4.338256E0,0E0,0E0,0E0,1.8391098E1,2.4974823E1,0E0,0E0,0E0,0E0,0E0,0E0,0E0,0E0,0E0,0E0],"parents":[2147483647,0,0,1,1,2,2,3,3,4,4,5,5,6,6,7,7,8,8,9,9,13,13,14,14],"right_children":[2,4,6,8,10,12,14,16,18,20,-1,-1,-1,22,24,-1,-1,-1,-1,-1,-1,-1,-1,-1,-1],"split_conditions":[0E0,1E0,0E0,1E0,3E1,3E0,-6E0,2.6E1,0E0,-3.5E-1,1.6454045E-2,-1.8025156E-2,-0E0,-2E0,9E0,-2.2074496E-2,-4.6758526E-3,-0E0,1.2187309E-2,-6.874211E-3,1.9304293E-3,-4.616562E-3,8.314443E-3,8.92481E-3,2.0936284E-2],"split_indices":[5,13,9,9,10,10,10,10,10,7,0,0,0,30,5,0,0,0,0,0,0,0,0,0,0],"split_type":[0,0,0,0,0,0,0,0,0,0,0,0,0,0,0,0,0,0,0,0,0,0,0,0,0],"sum_hessian":[8.4445056E2,3.8347543E2,4.6097513E2,3.139922E2,6.948326E1,5.2438816E1,4.0853632E2,2.8543958E2,2.8552584E1,4.434109E1,2.514217E1,3.6008636E1,1.6430182E1,1.1031188E2,2.9822446E2,2.367971E2,4.8642483E1,1.0198515E1,1.8354069E1,1.975227E1,2.4588821E1,3.637721E1,7.393467E1,9.016188E1,2.0806256E2],"tree_param":{"num_deleted":"0","num_feature":"32","num_nodes":"25","size_leaf_vector":"1"}},{"base_weights":[-0E0,-7.9012614E-1,6.851712E-1,-9.515557E-1,7.5887644E-1,-7.568974E-1,8.695946E-1,-1.2049952E0,1.918703E-1,-0E0,1.6259916E-2,-1.5272017E-2,-0E0,-5.1326696E-2,1.0638744E0,-2.0588944E-2,8.029549E-3,-2.4011855E-3,1.381065E-2,-6.821358E-3,9.150885E-3,8.288874E-3,2.1584988E-2],"categories":[],"categories_nodes":[],"categories_segments":[],"categories_sizes":[],"default_left":[0,0,0,0,0,0,0,0,0,0,0,0,0,0,0,0,0,0,0,0,0,0,0],"id":7,"left_children":[1,3,5,7,9,11,13,15,17,-1,-1,-1,-1,19,21,-1,-1,-1,-1,-1,-1,-1,-1],"loss_changes":[4.6756644E2,1.02442276E2,1.2544234E2,1.1032733E2,6.3087673E0,7.689968E0,7.825986E1,4.5752625E1,1.8054932E1,0E0,0E0,0E0,0E0,1.6593817E1,4.481244E1,0E0,0E0,0E0,0E0,0E0,0E0,0E0,0E0],"parents":[2147483647,0,0,1,1,2,2,3,3,4,4,5,5,6,6,7,7,8,8,13,13,14,14],"right_children":[2,4,6,8,10,12,14,16,18,-1,-1,-1,-1,20,22,-1,-1,-1,-1,-1,-1,-1,-1],"split_conditions":[0E0,1E0,0E0,1E0,0E0,4.1666666E-1,0E0,2.032E1,2.3E1,-0E0,1.6259916E-2,-1.5272017E-2,-0E0,3.9E1,1E1,-2.0588944E-2,8.029549E-3,-2.4011855E-3,1.381065E-2,-6.821358E-3,9.150885E-3,8.288874E-3,2.1584988E-2],"split_indices":[5,9,9,13,10,18,13,14,10,0,0,0,0,10,5,0,0,0,0,0,0,0,0],"split_type":[0,0,0,0,0,0,0,0,0,0,0,0,0,0,0,0,0,0,0,0,0,0,0],"sum_hessian":[8.593364E2,3.9751736E2,4.6181906E2,3.630666E2,3.4450783E1,4.917581E1,4.1264325E2,2.998312E2,6.3235397E1,1.0102324E1,2.4348461E1,3.860169E1,1.0574125E1,6.87562E1,3.4388705E2,2.891116E2,1.0719581E1,3.9310352E1,2.3925045E1,4.7242E1,2.15142E1,1.2428108E2,2.1960597E2],"tree_param":{"num_deleted":"0","num_feature":"32","num_nodes":"23","size_leaf_vector":"1"}},{"base_weights":[-1.6686743E-3,-5.9049606E-1,8.2030916E-1,-7.625073E-1,8.464454E-1,-6.496254E-1,1.0005742E0,-1.0192771E0,3.2007736E-1,-0E0,1.8422183E-2,-1.5055723E-2,-0E0,1.48123475E-2,1.1816572E0,-1.7626103E-2,1.42915E-2,-5.747501E-4,1.6131902E-2,-5.9022657E-3,1.0053535E-2,1.4263653E-2,2.4326831E-2],"categories":[],"categories_nodes":[],"categories_segments":[],"categories_sizes":[],"default_left":[0,0,0,0,0,0,0,0,0,0,0,0,0,0,0,0,0,0,0,0,0,0,0],"id":8,"left_children":[1,3,5,7,9,11,13,15,17,-1,-1,-1,-1,19,21,-1,-1,-1,-1,-1,-1,-1,-1],"loss_changes":[4.1306732E2,1.250423E2,9.675142E1,1.288382E2,1.0176205E1,8.504836E0,5.2283875E1,5.992914E1,2.4683506E1,0E0,0E0,0E0,0E0,1.4487321E1,1.36701355E1,0E0,0E0,0E0,0E0,0E0,0E0,0E0,0E0],"parents":[2147483647,0,0,1,1,2,2,3,3,4,4,5,5,6,6,7,7,8,8,13,13,14,14],"right_children":[2,4,6,8,10,12,14,16,18,-1,-1,-1,-1,20,22,-1,-1,-1,-1,-1,-1,-1,-1],"split_conditions":[6E0,1E0,0E0,1E0,0E0,2.3E1,0E0,2.794E1,2.6E1,-0E0,1.8422183E-2,-1.5055723E-2,-0E0,1.7E1,2.2E1,-1.7626103E-2,1.42915E-2,-5.747501E-4,1.6131902E-2,-5.9022657E-3,1.0053535E-2,1.4263653E-2,2.4326831E-2],"split_indices":[5,9,9,13,10,10,13,14,10,0,0,0,0,10,5,0,0,0,0,0,0,0,0],"split_type":[0,0,0,0,0,0,0,0,0,0,0,0,0,0,0,0,0,0,0,0,0,0,0],"sum_hessian":[8.5051794E2,4.9864093E2,3.5187698E2,4.4870526E2,4.9935665E1,3.544375E1,3.1643326E2,3.6565475E2,8.30505E1,1.6256554E1,3.367911E1,2.533787E1,1.010588E1,5.2787373E1,2.6364587E2,3.537166E2,1.1938133E1,5.250397E1,3.0546528E1,2.9210463E1,2.3576912E1,1.5201743E2,1.1162845E2],"tree_param":{"num_deleted":"0","num_feature":"32","num_nodes":"23","size_leaf_vector":"1"}},{"base_weights":[-8.794883E-4,-5.823007E-1,8.1513155E-1,-1.4515889E0,-2.8540277E-1,-5.809078E-1,9.7842497E-1,-2.4591688E-2,-2.2593355E-3,-8.5902137E-1,1.3522442E-1,-1.3455306E-2,-0E0,5.3336736E-2,1.1491629E0,-1.6501507E-2,-4.6296706E-4,-7.42306E-4,1.8340528E-2,-2.8801793E-3,9.725071E-3,-0E0,1.913672E-2],"categories":[],"categories_nodes":[],"categories_segments":[],"categories_sizes":[],"default_left":[0,0,0,0,0,0,0,0,0,0,0,0,0,0,0,0,0,0,0,0,0,0,0],"id":9,"left_children":[1,3,5,7,9,11,13,-1,-1,15,17,-1,-1,19,21,-1,-1,-1,-1,-1,-1,-1,-1],"loss_changes":[4.0532288E2,1.22106964E2,8.345177E1,6.5988464E0,9.496252E1,6.0452414E0,4.5762573E1,0E0,0E0,1.9322136E1,4.4278656E1,0E0,0E0,9.095976E0,1.1099243E1,0E0,0E0,0E0,0E0,0E0,0E0,0E0,0E0],"parents":[2147483647,0,0,1,1,2,2,3,3,4,4,5,5,6,6,9,9,10,10,13,13,14,14],"right_children":[2,4,6,8,10,12,14,-1,-1,16,18,-1,-1,20,22,-1,-1,-1,-1,-1,-1,-1,-1],"split_conditions":[6E0,0E0,0E0,1E0,-6E0,2.3E1,0E0,-2.4591688E-2,-2.2593355E-3,1E0,1E0,-1.3455306E-2,-0E0,3.4E1,-2E0,-1.6501507E-2,-4.6296706E-4,-7.42306E-4,1.8340528E-2,-2.8801793E-3,9.725071E-3,-0E0,1.913672E-2],"split_indices":[5,9,9,13,10,10,13,0,0,13,9,0,0,10,17,0,0,0,0,0,0,0,0],"split_type":[0,0,0,0,0,0,0,0,0,0,0,0,0,0,0,0,0,0,0,0,0,0,0],"sum_hessian":[8.5144775E2,5.003279E2,3.5111984E2,1.2174799E2,3.7857993E2,3.367868E1,3.1744116E2,1.1135356E2,1.0394429E1,1.6297011E2,2.1560983E2,2.3454071E1,1.0224607E1,5.343916E1,2.64002E2,1.3085692E2,3.2113186E1,1.8144182E2,3.4168007E1,3.3863163E1,1.9575996E1,1.1980627E1,2.520214E2],"tree_param":{"num_deleted":"0","num_feature":"32","num_nodes":"23","size_leaf_vector":"1"}},{"base_weights":[3.605917E-3,-7.4865097E-1,6.489706E-1,-9.853071E-1,3.2590306E-1,3.3600712E-1,1.1676935E0,-1.0735505E0,1.3768529E-2,-0E0,9.508433E-1,-3.5228494E-1,5.0595754E-1,1.9513005E-1,2.0758139E-2,-1.9107638E-2,-2.0483006E-3,-6.9218795E-3,4.1710027E-3,1.794162E-3,1.9439805E-2,-1.1221586E-2,7.258581E-4,1.1392331E-3,1.2884143E-2,-0E0,7.221253E-3],"categories":[],"categories_nodes":[],"categories_segments":[],"categories_sizes":[],"default_left":[0,0,0,0,0,0,0,0,0,0,0,0,0,0,0,0,0,0,0,0,0,0,0,0,0,0,0],"id":10,"left_children":[1,3,5,7,9,11,13,15,-1,17,19,21,23,25,-1,-1,-1,-1,-1,-1,-1,-1,-1,-1,-1,-1,-1],"loss_changes":[4.1111572E2,1.0212149E2,6.781816E1,5.542221E1,1.656302E1,3.542259E1,1.4469635E1,2.9495667E1,0E0,5.7739897E0,4.1954613E-1,1.022084E1,2.7804626E1,2.0379684E0,0E0,0E0,0E0,0E0,0E0,0E0,0E0,0E0,0E0,0E0,0E0,0E0,0E0],"parents":[2147483647,0,0,1,1,2,2,3,3,4,4,5,5,6,6,7,7,9,9,10,10,11,11,12,12,13,13],"right_children":[2,4,6,8,10,12,14,16,-1,18,20,22,24,26,-1,-1,-1,-1,-1,-1,-1,-1,-1,-1,-1,-1,-1],"split_conditions":[0E0,1E0,1.9E1,2.286E1,2.6E1,0E0,0E0,4.1E1,1.3768529E-2,-5.4E-1,1.5733333E2,1.7E1,-3E-2,3E0,2.0758139E-2,-1.9107638E-2,-2.0483006E-3,-6.9218795E-3,4.1710027E-3,1.794162E-3,1.9439805E-2,-1.1221586E-2,7.258581E-4,1.1392331E-3,1.2884143E-2,-0E0,7.221253E-3],"split_indices":[5,13,5,14,10,13,13,10,0,7,3,10,7,10,0,0,0,0,0,0,0,0,0,0,0,0,0],"split_type":[0,0,0,0,0,0,0,0,0,0,0,0,0,0,0,0,0,0,0,0,0,0,0,0,0,0,0],"sum_hessian":[8.428695E2,3.8628738E2,4.5658212E2,3.1964978E2,6.66376E1,2.918101E2,1.6477203E2,3.0798285E2,1.166694E1,4.258005E1,2.405755E1,5.2818813E1,2.3899127E2,2.331548E1,1.4145656E2,2.694259E2,3.855693E1,1.9233517E1,2.3346535E1,1.0015184E1,1.4042366E1,3.2338314E1,2.04805E1,1.0362577E2,1.3536551E2,1.0835836E1,1.2479643E1],"tree_param":{"num_deleted":"0","num_feature":"32","num_nodes":"27","size_leaf_vector":"1"}},{"base_weights":[-1.7356348E-3,-5.859884E-1,8.180324E-1,-1.4749368E0,-2.7366006E-1,-7.69703E-1,1.0089496E0,-2.5152758E-2,-2.729971E-3,-8.0213255E-1,1.3001254E-1,-1.6667657E-2,-0E0,8.437083E-2,1.1770002E0,-1.590584E-2,-0E0,-6.5073604E-4,1.680898E-2,-3.8154824E-3,8.071531E-3,1.0010809E-2,2.094173E-2],"categories":[],"categories_nodes":[],"categories_segments":[],"categories_sizes":[],"default_left":[0,0,0,0,0,0,0,0,0,0,0,0,0,0,0,0,0,0,0,0,0,0,0],"id":11,"left_children":[1,3,5,7,9,11,13,-1,-1,15,17,-1,-1,19,21,-1,-1,-1,-1,-1,-1,-1,-1],"loss_changes":[4.0455136E2,1.3033023E2,1.08708755E2,8.227753E0,8.2577545E1,7.0643578E0,4.3907288E1,0E0,0E0,2.6072212E1,3.687585E1,0E0,0E0,8.677111E0,9.545258E0,0E0,0E0,0E0,0E0,0E0,0E0,0E0,0E0],"parents":[2147483647,0,0,1,1,2,2,3,3,4,4,5,5,6,6,9,9,10,10,13,13,14,14],"right_children":[2,4,6,8,10,12,14,-1,-1,16,18,-1,-1,20,22,-1,-1,-1,-1,-1,-1,-1,-1],"split_conditions":[6E0,0E0,0E0,1E0,0E0,1.5E1,0E0,-2.5152758E-2,-2.729971E-3,1E0,1E0,-1.6667657E-2,-0E0,0E0,-7E0,-1.590584E-2,-0E0,-6.5073604E-4,1.680898E-2,-3.8154824E-3,8.071531E-3,1.0010809E-2,2.094173E-2],"split_indices":[5,9,9,13,10,10,13,0,0,13,9,0,0,14,10,0,0,0,0,0,0,0,0],"split_type":[0,0,0,0,0,0,0,0,0,0,0,0,0,0,0,0,0,0,0,0,0,0,0],"sum_hessian":[8.417752E2,4.9461102E2,3.4716418E2,1.2311633E2,3.714947E2,3.4339756E1,3.1282443E2,1.1158646E2,1.1529875E1,1.6397462E2,2.0752005E2,2.4257885E1,1.008187E1,5.216614E1,2.6065826E2,1.3270142E2,3.1273212E1,1.7342041E2,3.4099636E1,2.4905415E1,2.7260725E1,5.78948E1,2.0276347E2],"tree_param":{"num_deleted":"0","num_feature":"32","num_nodes":"23","size_leaf_vector":"1"}},{"base_weights":[-0E0,-7.4361956E-1,6.320933E-1,-1.0021006E0,1.6533406E-1,-6.958197E-1,8.006861E-1,-1.1623228E0,5.00384E-1,-1.1881461E-1,9.081443E-1,-1.49133755E-2,-0E0,2.4075396E-1,1.1162165E0,-2.079301E-2,-3.509647E-3,-0E0,1.4421793E-2,-1.1478949E-2,2.979315E-3,1.4146193E-3,1.8736504E-2,-8.433632E-3,7.244045E-3,5.3598485E-3,1.9863721E-2],"categories":[],"categories_nodes":[],"categories_segments":[],"categories_sizes":[],"default_left":[0,0,0,0,0,0,0,0,0,0,0,0,0,0,0,0,0,0,0,0,0,0,0,0,0,0,0],"id":12,"left_children":[1,3,5,7,9,11,13,15,17,19,21,-1,-1,23,25,-1,-1,-1,-1,-1,-1,-1,-1,-1,-1,-1,-1],"loss_changes":[4.0041113E2,9.5260605E1,1.0519998E2,7.790881E1,2.124793E1,8.015146E0,6.727475E1,2.9369446E1,7.855634E0,1.3264019E1,8.4049416E-1,0E0,0E0,2.5657335E1,1.8048798E1,0E0,0E0,0E0,0E0,0E0,0E0,0E0,0E0,0E0,0E0,0E0,0E0],"parents":[2147483647,0,0,1,1,2,2,3,3,4,4,5,5,6,6,7,7,8,8,9,9,10,10,13,13,14,14],"right_children":[2,4,6,8,10,12,14,16,18,20,22,-1,-1,24,26,-1,-1,-1,-1,-1,-1,-1,-1,-1,-1,-1,-1],"split_conditions":[0E0,2.6E1,0E0,1E0,1E0,2.6E1,1E1,1E0,0E0,-7E-1,1.5733333E2,-1.49133755E-2,-0E0,0E0,0E0,-2.079301E-2,-3.509647E-3,-0E0,1.4421793E-2,-1.1478949E-2,2.979315E-3,1.4146193E-3,1.8736504E-2,-8.433632E-3,7.244045E-3,5.3598485E-3,1.9863721E-2],"split_indices":[5,10,9,9,13,10,5,13,10,7,3,0,0,13,13,0,0,0,0,0,0,0,0,0,0,0,0],"split_type":[0,0,0,0,0,0,0,0,0,0,0,0,0,0,0,0,0,0,0,0,0,0,0,0,0,0,0],"sum_hessian":[8.47618E2,3.8777524E2,4.5984274E2,3.0500977E2,8.2765465E1,4.841091E1,4.1143182E2,2.7840643E2,2.6603325E1,5.7575253E1,2.5190212E1,3.526432E1,1.3146593E1,1.5416658E2,2.5726526E2,2.3913875E2,3.9267696E1,1.0320827E1,1.6282497E1,2.2608973E1,3.4966278E1,1.0394944E1,1.4795267E1,2.862334E1,1.2554324E2,4.0522964E1,2.167423E2],"tree_param":{"num_deleted":"0","num_feature":"32","num_nodes":"27","size_leaf_vector":"1"}},{"base_weights":[2.2408191E-2,-1.2615459E0,3.16058E-1,-1.38526E0,-0E0,-3.5285327E-1,6.896405E-1,-2.4299515E-2,-6.908418E-1,-4.7388485E-1,1.8029021E-2,4.521544E-1,1.3784626E0,-1.5196028E-2,-0E0,-1.0103778E-2,7.967437E-3,-1.0531445E-3,1.4258219E-2,4.560421E-3,2.3286598E-2],"categories":[],"categories_nodes":[],"categories_segments":[],"categories_sizes":[],"default_left":[0,0,0,0,0,0,0,0,0,0,0,0,0,0,0,0,0,0,0,0,0],"id":13,"left_children":[1,3,5,7,-1,9,11,-1,13,15,-1,17,19,-1,-1,-1,-1,-1,-1,-1,-1],"loss_changes":[3.1758575E2,1.9461716E1,1.7570244E2,1.7939148E0,0E0,4.2986652E1,6.526164E1,0E0,3.830536E0,3.6637264E1,0E0,8.102359E1,1.3940582E0,0E0,0E0,0E0,0E0,0E0,0E0,0E0,0E0],"parents":[2147483647,0,0,1,1,2,2,3,3,5,5,6,6,8,8,9,9,11,11,12,12],"right_children":[2,4,6,8,-1,10,12,-1,14,16,-1,18,20,-1,-1,-1,-1,-1,-1,-1,-1],"split_conditions":[0E0,1E0,0E0,3E0,-0E0,2.286E1,1E0,-2.4299515E-2,-2.4E-1,1E0,1.8029021E-2,3E1,0E0,-1.5196028E-2,-0E0,-1.0103778E-2,7.967437E-3,-1.0531445E-3,1.4258219E-2,4.560421E-3,2.3286598E-2],"split_indices":[9,13,10,10,0,14,9,0,7,9,0,10,13,0,0,0,0,0,0,0,0],"split_type":[0,0,0,0,0,0,0,0,0,0,0,0,0,0,0,0,0,0,0,0,0],"sum_hessian":[8.4705884E2,1.5378745E2,6.9327136E2,1.3728291E2,1.6504532E1,2.4481035E2,4.4846103E2,1.0846019E2,2.882273E1,2.3016379E2,1.4646556E1,3.405377E2,1.0792333E2,1.8441044E1,1.0381685E1,2.0229796E2,2.7865833E1,1.528959E2,1.8764178E2,1.0917794E1,9.700554E1],"tree_param":{"num_deleted":"0","num_feature":"32","num_nodes":"21","size_leaf_vector":"1"}},{"base_weights":[-9.055298E-3,-7.34652E-1,6.088247E-1,-9.619967E-1,1.0237962E-1,-7.059313E-1,7.9351544E-1,-1.1036611E0,4.3742904E-1,-1.2356178E-2,3.673577E-1,-1.6235221E-2,-0E0,2.889443E-1,1.0584577E0,-2.397835E-2,-1.3988815E-2,-0E0,1.2602341E-2,-0E0,1.0752441E-2,-2.7912664E-3,8.497713E-3,5.994381E-3,1.9268384E-2],"categories":[],"categories_nodes":[],"categories_segments":[],"categories_sizes":[],"default_left":[0,0,0,0,0,0,0,0,0,0,0,0,0,0,0,0,0,0,0,0,0,0,0,0,0],"id":14,"left_children":[1,3,5,7,9,11,13,15,17,-1,19,-1,-1,21,23,-1,-1,-1,-1,-1,-1,-1,-1,-1,-1],"loss_changes":[3.8318198E2,7.877225E1,1.1292247E2,6.6101746E1,1.8336924E1,1.2752985E1,4.83132E1,1.4012054E1,5.7967453E0,0E0,9.968777E0,0E0,0E0,1.8109793E1,1.8529022E1,0E0,0E0,0E0,0E0,0E0,0E0,0E0,0E0,0E0,0E0],"parents":[2147483647,0,0,1,1,2,2,3,3,4,4,5,5,6,6,7,7,8,8,10,10,13,13,14,14],"right_children":[2,4,6,8,10,12,14,16,18,-1,20,-1,-1,22,24,-1,-1,-1,-1,-1,-1,-1,-1,-1,-1],"split_conditions":[0E0,2.8E1,0E0,1E0,0E0,1.5E1,1E1,0E0,0E0,-1.2356178E-2,-1E0,-1.6235221E-2,-0E0,-2E0,-1.6E1,-2.397835E-2,-1.3988815E-2,-0E0,1.2602341E-2,-0E0,1.0752441E-2,-2.7912664E-3,8.497713E-3,5.994381E-3,1.9268384E-2],"split_indices":[5,10,9,9,9,10,5,9,10,0,30,0,0,30,10,0,0,0,0,0,0,0,0,0,0],"split_type":[0,0,0,0,0,0,0,0,0,0,0,0,0,0,0,0,0,0,0,0,0,0,0,0,0],"sum_hessian":[8.4887665E2,3.9305273E2,4.558239E2,3.1241904E2,8.0633675E1,5.2767235E1,4.0305667E2,2.8663986E2,2.5779177E1,1.434958E1,6.628409E1,3.6816174E1,1.5951061E1,1.4545412E2,2.5760254E2,9.507878E1,1.915611E2,1.0070703E1,1.5708475E1,2.5942038E1,4.0342052E1,4.4626617E1,1.0082751E2,5.09068E1,2.0669576E2],"tree_param":{"num_deleted":"0","num_feature":"32","num_nodes":"25","size_leaf_vector":"1"}},{"base_weights":[-0E0,-5.228675E-1,8.0541676E-1,-1.3334401E0,-2.3959754E-1,-6.3641596E-1,9.7460914E-1,-2.3072587E-2,-7.657321E-4,-4.1560328E-1,7.7341264E-1,-1.2220305E-2,-0E0,7.042394E-2,1.1318974E0,-1.0685891E-2,6.258702E-3,-0E0,1.5275468E-2,-4.9059363E-3,6.627835E-3,-0E0,1.8913956E-2],"categories":[],"categories_nodes":[],"categories_segments":[],"categories_sizes":[],"default_left":[0,0,0,0,0,0,0,0,0,0,0,0,0,0,0,0,0,0,0,0,0,0,0],"id":15,"left_children":[1,3,5,7,9,11,13,-1,-1,15,17,-1,-1,19,21,-1,-1,-1,-1,-1,-1,-1,-1],"loss_changes":[3.5723727E2,1.10866455E2,8.442844E1,1.1759384E1,6.8227394E1,3.043747E-2,3.828647E1,0E0,0E0,6.928167E1,4.2565804E0,0E0,0E0,7.306342E0,1.3557953E1,0E0,0E0,0E0,0E0,0E0,0E0,0E0,0E0],"parents":[2147483647,0,0,1,1,2,2,3,3,4,4,5,5,6,6,9,9,10,10,13,13,14,14],"right_children":[2,4,6,8,10,12,14,-1,-1,16,18,-1,-1,20,22,-1,-1,-1,-1,-1,-1,-1,-1],"split_conditions":[7E0,0E0,0E0,1E0,1E0,6.1E-1,0E0,-2.3072587E-2,-7.657321E-4,1E0,-2.54E0,-1.2220305E-2,-0E0,-2.54E0,-2E0,-1.0685891E-2,6.258702E-3,-0E0,1.5275468E-2,-4.9059363E-3,6.627835E-3,-0E0,1.8913956E-2],"split_indices":[5,9,9,13,9,7,13,0,0,13,14,0,0,14,17,0,0,0,0,0,0,0,0],"split_type":[0,0,0,0,0,0,0,0,0,0,0,0,0,0,0,0,0,0,0,0,0,0,0],"sum_hessian":[8.424017E2,5.1001083E2,3.3239087E2,1.2630049E2,3.8371033E2,3.1843811E1,3.0054706E2,1.1362347E2,1.2677027E1,3.3132248E2,5.238784E1,2.1506525E1,1.0337287E1,4.8651188E1,2.5189587E2,2.5652234E2,7.480016E1,1.4034995E1,3.8352844E1,1.799864E1,3.0652546E1,1.0742555E1,2.4115332E2],"tree_param":{"num_deleted":"0","num_feature":"32","num_nodes":"23","size_leaf_vector":"1"}},{"base_weights":[-0E0,-7.074778E-1,5.831014E-1,-9.193214E-1,2.3042768E-1,-7.175273E-1,7.569398E-1,-1.0763434E0,4.3403456E-1,-4.416755E-2,7.6578754E-1,-1.5292513E-2,-0E0,-1.2889181E-2,9.1737664E-1,-1.9761316E-2,-3.6399493E-3,-0E0,1.2382208E-2,-8.894339E-3,2.699402E-3,-0E0,1.70696E-2,-5.391036E-3,7.3965904E-3,6.753354E-3,1.8427532E-2],"categories":[],"categories_nodes":[],"categories_segments":[],"categories_sizes":[],"default_left":[0,0,0,0,0,0,0,0,0,0,0,0,0,0,0,0,0,0,0,0,0,0,0,0,0,0,0],"id":16,"left_children":[1,3,5,7,9,11,13,15,17,19,21,-1,-1,23,25,-1,-1,-1,-1,-1,-1,-1,-1,-1,-1,-1,-1],"loss_changes":[3.4792896E2,7.9036575E1,1.0566455E2,7.059332E1,1.2979251E1,1.0503992E1,5.4177734E1,3.1840027E1,2.3217793E0,6.382807E0,3.8754234E0,0E0,0E0,1.0481639E1,3.249771E1,0E0,0E0,0E0,0E0,0E0,0E0,0E0,0E0,0E0,0E0,0E0,0E0],"parents":[2147483647,0,0,1,1,2,2,3,3,4,4,5,5,6,6,7,7,8,8,9,9,10,10,13,13,14,14],"right_children":[2,4,6,8,10,12,14,16,18,20,22,-1,-1,24,26,-1,-1,-1,-1,-1,-1,-1,-1,-1,-1,-1,-1],"split_conditions":[0E0,1E0,0E0,1E0,2.3E1,2.6E1,0E0,2.8E1,5.08E0,-5.8E-1,1.5733333E2,-1.5292513E-2,-0E0,3.5E1,9E0,-1.9761316E-2,-3.6399493E-3,-0E0,1.2382208E-2,-8.894339E-3,2.699402E-3,-0E0,1.70696E-2,-5.391036E-3,7.3965904E-3,6.753354E-3,1.8427532E-2],"split_indices":[5,13,9,9,10,10,13,10,14,7,3,0,0,10,5,0,0,0,0,0,0,0,0,0,0,0,0],"split_type":[0,0,0,0,0,0,0,0,0,0,0,0,0,0,0,0,0,0,0,0,0,0,0,0,0,0,0],"sum_hessian":[8.3822516E2,3.7961575E2,4.586094E2,3.130402E2,6.6575584E1,5.05986E1,4.080108E2,2.8346613E2,2.957405E1,4.0712948E1,2.586264E1,3.9100628E1,1.14979725E1,6.6625656E1,3.4138516E2,2.3453421E2,4.893192E1,1.7978386E1,1.1595665E1,1.6136354E1,2.4576591E1,1.0228741E1,1.56339E1,4.4822277E1,2.1803381E1,1.1640955E2,2.249756E2],"tree_param":{"num_deleted":"0","num_feature":"32","num_nodes":"27","size_leaf_vector":"1"}},{"base_weights":[1.6528035E-3,-6.921816E-1,5.867732E-1,-9.10783E-1,2.706071E-1,3.3639434E-1,1.1503149E0,-9.922322E-1,1.23986965E-2,-2.7721578E-2,8.182715E-1,2.0001708E-1,1.9672796E-2,3.1708519E-3,2.0162743E-2,-1.7460462E-2,-0E0,-5.664664E-3,1.700425E-3,4.6436032E-4,1.705651E-2,-0E0,1.1852394E-2],"categories":[],"categories_nodes":[],"categories_segments":[],"categories_sizes":[],"default_left":[0,0,0,0,0,0,0,0,0,0,0,0,0,0,0,0,0,0,0,0,0,0,0],"id":17,"left_children":[1,3,5,7,9,11,13,15,-1,17,19,21,-1,-1,-1,-1,-1,-1,-1,-1,-1,-1,-1],"loss_changes":[3.3908347E2,8.292462E1,5.782109E1,4.561914E1,1.4325729E1,3.3363876E1,7.702194E0,2.9168121E1,0E0,2.881766E0,1.3503113E0,2.8533724E1,0E0,0E0,0E0,0E0,0E0,0E0,0E0,0E0,0E0,0E0,0E0],"parents":[2147483647,0,0,1,1,2,2,3,3,4,4,5,5,6,6,7,7,9,9,10,10,11,11],"right_children":[2,4,6,8,10,12,14,16,-1,18,20,22,-1,-1,-1,-1,-1,-1,-1,-1,-1,-1,-1],"split_conditions":[0E0,1E0,2.2E1,2.286E1,2.3E1,1.524E1,0E0,5.1E1,1.23986965E-2,-3.5E-1,1.5733333E2,4.1E1,1.9672796E-2,3.1708519E-3,2.0162743E-2,-1.7460462E-2,-0E0,-5.664664E-3,1.700425E-3,4.6436032E-4,1.705651E-2,-0E0,1.1852394E-2],"split_indices":[5,13,5,14,10,14,13,10,0,7,3,10,0,0,0,0,0,0,0,0,0,0,0],"split_type":[0,0,0,0,0,0,0,0,0,0,0,0,0,0,0,0,0,0,0,0,0,0,0],"sum_hessian":[8.314841E2,3.7721017E2,4.5427393E2,3.1075833E2,6.645184E1,3.2185483E2,1.324191E2,2.9952362E2,1.1234702E1,3.994735E1,2.650449E1,2.8538895E2,3.6465862E1,1.7785707E1,1.1463339E2,2.7249496E2,2.7028671E1,1.8832018E1,2.111533E1,1.0630389E1,1.5874102E1,2.1456985E2,7.08191E1],"tree_param":{"num_deleted":"0","num_feature":"32","num_nodes":"23","size_leaf_vector":"1"}},{"base_weights":[-0E0,-4.5246258E-1,8.3795005E-1,-1.2966152E0,-1.7342567E-1,-5.1583475E-1,9.749472E-1,-2.235682E-2,-2.304845E-3,-7.041223E-1,2.0743048E-1,-1.2602435E-2,-0E0,1.9336584E-1,1.1074067E0,-1.3768155E-2,-0E0,-0E0,1.7947504E-2,-0E0,8.372473E-3,7.930665E-3,1.9784758E-2],"categories":[],"categories_nodes":[],"categories_segments":[],"categories_sizes":[],"default_left":[0,0,0,0,0,0,0,0,0,0,0,0,0,0,0,0,0,0,0,0,0,0,0],"id":18,"left_children":[1,3,5,7,9,11,13,-1,-1,15,17,-1,-1,19,21,-1,-1,-1,-1,-1,-1,-1,-1],"loss_changes":[3.1940973E2,1.2325867E2,5.7606125E1,8.726364E0,8.695429E1,2.4651184E0,2.2567535E1,0E0,0E0,2.0365479E1,4.1770508E1,0E0,0E0,4.8976803E0,9.636749E0,0E0,0E0,0E0,0E0,0E0,0E0,0E0,0E0],"parents":[2147483647,0,0,1,1,2,2,3,3,4,4,5,5,6,6,9,9,10,10,13,13,14,14],"right_children":[2,4,6,8,10,12,14,-1,-1,16,18,-1,-1,20,22,-1,-1,-1,-1,-1,-1,-1,-1],"split_conditions":[9E0,0E0,0E0,1E0,0E0,0E0,0E0,-2.235682E-2,-2.304845E-3,1E0,1E0,-1.2602435E-2,-0E0,1.1E1,-1.2E1,-1.3768155E-2,-0E0,-0E0,1.7947504E-2,-0E0,8.372473E-3,7.930665E-3,1.9784758E-2],"split_indices":[5,9,9,13,10,14,13,0,0,13,9,0,0,10,10,0,0,0,0,0,0,0,0],"split_type":[0,0,0,0,0,0,0,0,0,0,0,0,0,0,0,0,0,0,0,0,0,0,0],"sum_hessian":[8.394057E2,5.4707556E2,2.9233014E2,1.303552E2,4.1672037E2,2.3692913E1,2.6863724E2,1.16557785E2,1.379741E1,1.7747144E2,2.3924892E2,1.2826064E1,1.0866849E1,4.3964542E1,2.2467268E2,1.4597449E2,3.1496946E1,2.0003853E2,3.9210396E1,2.2050367E1,2.1914177E1,4.584651E1,1.7882617E2],"tree_param":{"num_deleted":"0","num_feature":"32","num_nodes":"23","size_leaf_vector":"1"}},{"base_weights":[1.8466366E-2,-6.841029E-1,6.246766E-1,-7.944405E-1,1.895587E-2,-5.2917373E-1,7.745537E-1,-9.297455E-1,5.034438E-1,-1.2979466E-2,-0E0,-0E0,9.3913734E-1,-1.7961437E-2,-0E0,-0E0,1.318892E-2,-7.165515E-3,7.576842E-3,7.767875E-3,1.8709173E-2],"categories":[],"categories_nodes":[],"categories_segments":[],"categories_sizes":[],"default_left":[0,0,0,0,0,0,0,0,0,0,0,0,0,0,0,0,0,0,0,0,0],"id":19,"left_children":[1,3,5,7,-1,9,11,13,15,-1,-1,17,19,-1,-1,-1,-1,-1,-1,-1,-1],"loss_changes":[3.5624048E2,8.000807E1,8.0109436E1,6.713097E1,0E0,9.345086E0,5.400992E1,6.1804993E1,7.20592E0,0E0,0E0,1.5311029E1,2.7224457E1,0E0,0E0,0E0,0E0,0E0,0E0,0E0,0E0],"parents":[2147483647,0,0,1,1,2,2,3,3,5,5,6,6,7,7,8,8,11,11,12,12],"right_children":[2,4,6,8,-1,10,12,14,16,-1,-1,18,20,-1,-1,-1,-1,-1,-1,-1,-1],"split_conditions":[0E0,2.286E1,0E0,1E0,1.895587E-2,1.5E1,0E0,1E0,-2E0,-1.2979466E-2,-0E0,1.7E1,1E1,-1.7961437E-2,-0E0,-0E0,1.318892E-2,-7.165515E-3,7.576842E-3,7.767875E-3,1.8709173E-2],"split_indices":[5,14,9,9,0,10,13,13,10,0,0,10,5,0,0,0,0,0,0,0,0],"split_type":[0,0,0,0,0,0,0,0,0,0,0,0,0,0,0,0,0,0,0,0,0],"sum_hessian":[8.3222064E2,3.8240683E2,4.4981384E2,3.6429147E2,1.811535E1,4.80839E1,4.0172992E2,3.3318018E2,3.1111286E1,3.3403645E1,1.4680256E1,6.798844E1,3.337415E2,2.7764835E2,5.5531857E1,1.0319999E1,2.0791286E1,3.7897274E1,3.0091166E1,1.1976283E2,2.1397865E2],"tree_param":{"num_deleted":"0","num_feature":"32","num_nodes":"21","size_leaf_vector":"1"}},{"base_weights":[-0E0,-6.671211E-1,5.542672E-1,-8.653467E-1,1.9528815E-1,-7.410923E-1,7.337016E-1,-1.017648E0,4.9285853E-1,-7.0132785E-2,7.956942E-1,-9.402685E-1,-0E0,-3.0974641E-2,8.9807665E-1,-1.7412703E-2,6.161753E-3,1.0852313E-2,-0E0,-7.692579E-3,2.8298555E-3,2.2644922E-4,1.684807E-2,-1.753099E-2,-8.767202E-4,-8.389637E-3,6.8638395E-3,8.692156E-3,1.8959085E-2],"categories":[],"categories_nodes":[],"categories_segments":[],"categories_sizes":[],"default_left":[0,0,0,0,0,0,0,0,1,0,0,0,0,0,0,0,0,0,0,0,0,0,0,0,0,0,0,0,0],"id":20,"left_children":[1,3,5,7,9,11,13,15,17,19,21,23,-1,25,27,-1,-1,-1,-1,-1,-1,-1,-1,-1,-1,-1,-1,-1,-1],"loss_changes":[3.0971045E2,6.794939E1,1.0758746E2,6.79707E1,1.3965E1,8.461828E0,5.436647E1,3.1270813E1,1.8859868E0,6.0015917E0,1.0572262E0,1.3523483E0,0E0,1.6719454E1,2.6146729E1,0E0,0E0,0E0,0E0,0E0,0E0,0E0,0E0,0E0,0E0,0E0,0E0,0E0,0E0],"parents":[2147483647,0,0,1,1,2,2,3,3,4,4,5,5,6,6,7,7,8,8,9,9,10,10,11,11,13,13,14,14],"right_children":[2,4,6,8,10,12,14,16,18,20,22,24,-1,26,28,-1,-1,-1,-1,-1,-1,-1,-1,-1,-1,-1,-1,-1,-1],"split_conditions":[0E0,1E0,0E0,1E0,3E1,2.6E1,0E0,2.032E1,-2.0375E1,-3.1E-1,6.0575E1,5.08E0,-0E0,3E0,1.4E1,-1.7412703E-2,6.161753E-3,1.0852313E-2,-0E0,-7.692579E-3,2.8298555E-3,2.2644922E-4,1.684807E-2,-1.753099E-2,-8.767202E-4,-8.389637E-3,6.8638395E-3,8.692156E-3,1.8959085E-2],"split_indices":[5,13,9,9,10,10,13,14,1,7,1,14,0,10,5,0,0,0,0,0,0,0,0,0,0,0,0,0,0],"split_type":[0,0,0,0,0,0,0,0,0,0,0,0,0,0,0,0,0,0,0,0,0,0,0,0,0,0,0,0,0],"sum_hessian":[8.3284204E2,3.777545E2,4.5508752E2,3.107591E2,6.699539E1,5.1870167E1,4.0321735E2,2.8249557E2,2.8263538E1,4.3485344E1,2.3510048E1,4.089613E1,1.0974038E1,6.755815E1,3.356592E2,2.7234363E2,1.0151932E1,1.7963308E1,1.030023E1,2.1329E1,2.2156343E1,1.0105594E1,1.3404453E1,3.068305E1,1.02130785E1,3.646162E1,3.1096527E1,1.5841588E2,1.7724333E2],"tree_param":{"num_deleted":"0","num_feature":"32","num_nodes":"29","size_leaf_vector":"1"}},{"base_weights":[1.6002191E-2,-4.8324782E-1,7.582416E-1,-2.0347307E-2,-2.1944529E-1,-5.2485704E-1,9.141477E-1,-7.066514E-1,1.5611525E-1,-1.2443151E-2,-0E0,6.1782247E-1,2.0132085E-2,-1.28026195E-2,-0E0,-5.13884E-3,7.931364E-3,6.2901946E-3,1.8594647E-2],"categories":[],"categories_nodes":[],"categories_segments":[],"categories_sizes":[],"default_left":[0,0,0,0,0,0,0,0,0,0,0,0,0,0,0,0,0,0,0],"id":21,"left_children":[1,3,5,-1,7,9,11,13,15,-1,-1,17,-1,-1,-1,-1,-1,-1,-1],"loss_changes":[3.085539E2,9.595643E1,6.9995514E1,0E0,7.11244E1,5.4149246E0,2.179773E1,1.2486252E1,3.492739E1,0E0,0E0,1.4180153E1,0E0,0E0,0E0,0E0,0E0,0E0,0E0],"parents":[2147483647,0,0,1,1,2,2,4,4,5,5,6,6,7,7,8,8,11,11],"right_children":[2,4,6,-1,8,10,12,14,16,-1,-1,18,-1,-1,-1,-1,-1,-1,-1],"split_conditions":[6E0,0E0,0E0,-2.0347307E-2,0E0,1.5E1,2.1E1,1E0,-5E-1,-1.2443151E-2,-0E0,1E0,2.0132085E-2,-1.28026195E-2,-0E0,-5.13884E-3,7.931364E-3,6.2901946E-3,1.8594647E-2],"split_indices":[5,9,9,0,10,10,5,9,7,0,0,9,0,0,0,0,0,0,0],"split_type":[0,0,0,0,0,0,0,0,0,0,0,0,0,0,0,0,0,0,0],"sum_hessian":[8.2510846E2,4.9071033E2,3.3439813E2,1.17321106E2,3.7338922E2,3.2960762E1,3.0143738E2,1.6606552E2,2.073237E2,2.2748127E1,1.0212637E1,1.7112627E2,1.303111E2,1.489353E2,1.713022E1,8.148851E1,1.2583519E2,1.2880276E2,4.2323513E1],"tree_param":{"num_deleted":"0","num_feature":"32","num_nodes":"19","size_leaf_vector":"1"}},{"base_weights":[-0E0,-6.634706E-1,5.625832E-1,-8.05895E-1,6.4137745E-1,-6.477516E-1,7.2800076E-1,-1.0260867E0,1.462858E-1,-0E0,1.3870939E-2,-1.3230765E-2,-1.9412594E-3,-0E0,8.76278E-1,-1.7621947E-2,7.5269337E-3,-2.419359E-3,7.7876537E-3,-4.2855805E-3,8.909645E-3,6.6745253E-3,1.7861934E-2],"categories":[],"categories_nodes":[],"categories_segments":[],"categories_sizes":[],"default_left":[0,0,0,0,0,0,0,0,0,0,0,0,0,0,0,0,0,0,0,0,0,0,0],"id":22,"left_children":[1,3,5,7,9,11,13,15,17,-1,-1,-1,-1,19,21,-1,-1,-1,-1,-1,-1,-1,-1],"loss_changes":[3.095023E2,7.285834E1,9.0820435E1,7.6721634E1,2.8090687E0,1.0248203E0,4.405992E1,3.520172E1,7.940785E0,0E0,0E0,0E0,0E0,1.0042264E1,2.934636E1,0E0,0E0,0E0,0E0,0E0,0E0,0E0,0E0],"parents":[2147483647,0,0,1,1,2,2,3,3,4,4,5,5,6,6,7,7,8,8,13,13,14,14],"right_children":[2,4,6,8,10,12,14,16,18,-1,-1,-1,-1,20,22,-1,-1,-1,-1,-1,-1,-1,-1],"split_conditions":[0E0,1E0,0E0,1E0,5.2786366E1,4E0,0E0,2.032E1,1.54E2,-0E0,1.3870939E-2,-1.3230765E-2,-1.9412594E-3,6E0,1E1,-1.7621947E-2,7.5269337E-3,-2.419359E-3,7.7876537E-3,-4.2855805E-3,8.909645E-3,6.6745253E-3,1.7861934E-2],"split_indices":[5,9,9,13,4,30,13,14,4,0,0,0,0,30,5,0,0,0,0,0,0,0,0],"split_type":[0,0,0,0,0,0,0,0,0,0,0,0,0,0,0,0,0,0,0,0,0,0,0],"sum_hessian":[8.238355E2,3.796953E2,4.4414023E2,3.45793E2,3.39023E1,4.9788006E1,3.943522E2,2.839646E2,6.182841E1,1.2612893E1,2.128941E1,3.0769793E1,1.9018213E1,6.552124E1,3.2883096E2,2.7366928E2,1.0295305E1,2.76646E1,3.416381E1,4.6783363E1,1.8737879E1,1.2002526E2,2.0880571E2],"tree_param":{"num_deleted":"0","num_feature":"32","num_nodes":"23","size_leaf_vector":"1"}},{"base_weights":[3.411472E-3,-6.42152E-1,5.4944766E-1,-7.84914E-1,6.0191435E-1,-7.3090005E-1,7.3542666E-1,-1.0057821E0,1.2689477E-1,-0E0,1.444673E-2,-1.5527462E-2,-0E0,-0E0,8.918067E-1,-1.7309556E-2,7.5487574E-3,-2.2458532E-3,1.1579702E-2,-7.0994E-3,7.955519E-3,8.775089E-3,1.8916706E-2],"categories":[],"categories_nodes":[],"categories_segments":[],"categories_sizes":[],"default_left":[0,0,0,0,0,0,0,0,0,0,0,0,0,0,0,0,0,0,0,0,0,0,0],"id":23,"left_children":[1,3,5,7,9,11,13,15,17,-1,-1,-1,-1,19,21,-1,-1,-1,-1,-1,-1,-1,-1],"loss_changes":[2.9395407E2,6.9200485E1,1.097612E2,7.2970215E1,7.5172577E0,1.15491295E1,4.7663254E1,3.442166E1,1.2944372E1,0E0,0E0,0E0,0E0,1.6033142E1,2.4944702E1,0E0,0E0,0E0,0E0,0E0,0E0,0E0,0E0],"parents":[2147483647,0,0,1,1,2,2,3,3,4,4,5,5,6,6,7,7,8,8,13,13,14,14],"right_children":[2,4,6,8,10,12,14,16,18,-1,-1,-1,-1,20,22,-1,-1,-1,-1,-1,-1,-1,-1],"split_conditions":[0E0,1E0,0E0,1E0,0E0,3.1E1,0E0,2.032E1,2.6E1,-0E0,1.444673E-2,-1.5527462E-2,-0E0,1.7E1,1.4E1,-1.7309556E-2,7.5487574E-3,-2.2458532E-3,1.1579702E-2,-7.0994E-3,7.955519E-3,8.775089E-3,1.8916706E-2],"split_indices":[5,9,9,13,10,10,13,14,10,0,0,0,0,10,5,0,0,0,0,0,0,0,0],"split_type":[0,0,0,0,0,0,0,0,0,0,0,0,0,0,0,0,0,0,0,0,0,0,0],"sum_hessian":[8.301766E2,3.770132E2,4.531634E2,3.4174896E2,3.526424E1,5.3983868E1,3.991795E2,2.7829382E2,6.3455135E1,1.1613585E1,2.3650656E1,4.198634E1,1.199753E1,6.854798E1,3.3063153E2,2.6800342E2,1.0290407E1,4.062766E1,2.2827475E1,3.8127316E1,3.042067E1,1.6003477E2,1.7059676E2],"tree_param":{"num_deleted":"0","num_feature":"32","num_nodes":"23","size_leaf_vector":"1"}},{"base_weights":[-0E0,-4.8768565E-1,7.0322484E-1,-1.2647588E0,-2.1985514E-1,-5.1247066E-1,8.473843E-1,-2.165238E-2,-1.594088E-3,-7.0564467E-1,1.2479461E-1,-1.2844158E-2,-0E0,-0E0,1.0098695E0,-1.2913506E-2,-0E0,-3.6419444E-3,8.783281E-3,-5.588448E-3,8.446914E-3,1.1814423E-2,2.0521054E-2],"categories":[],"categories_nodes":[],"categories_segments":[],"categories_sizes":[],"default_left":[0,0,0,0,0,0,0,0,0,0,0,0,0,0,0,0,0,0,0,0,0,0,0],"id":24,"left_children":[1,3,5,7,9,11,13,-1,-1,15,17,-1,-1,19,21,-1,-1,-1,-1,-1,-1,-1,-1],"loss_changes":[2.842446E2,9.5249115E1,6.190065E1,6.3258057E0,6.430653E1,6.460305E0,3.871614E1,0E0,0E0,1.419297E1,3.3361237E1,0E0,0E0,1.1275229E1,8.826904E0,0E0,0E0,0E0,0E0,0E0,0E0,0E0,0E0],"parents":[2147483647,0,0,1,1,2,2,3,3,4,4,5,5,6,6,9,9,10,10,13,13,14,14],"right_children":[2,4,6,8,10,12,14,-1,-1,16,18,-1,-1,20,22,-1,-1,-1,-1,-1,-1,-1,-1],"split_conditions":[6E0,0E0,0E0,1E0,-6E0,1.5E1,0E0,-2.165238E-2,-1.594088E-3,1E0,2E0,-1.2844158E-2,-0E0,5E0,2.1E1,-1.2913506E-2,-0E0,-3.6419444E-3,8.783281E-3,-5.588448E-3,8.446914E-3,1.1814423E-2,2.0521054E-2],"split_indices":[5,9,9,13,10,10,13,0,0,9,30,0,0,10,5,0,0,0,0,0,0,0,0],"split_type":[0,0,0,0,0,0,0,0,0,0,0,0,0,0,0,0,0,0,0,0,0,0,0],"sum_hessian":[8.2341876E2,4.8577197E2,3.3764682E2,1.18587776E2,3.671842E2,3.233616E1,3.0531064E2,1.0697605E2,1.1611727E1,1.5597122E2,2.1121297E2,2.1869385E1,1.0466772E1,5.3081318E1,2.5222934E2,1.408685E2,1.5102735E1,1.10974045E2,1.0023892E2,2.8305136E1,2.477618E1,1.3716705E2,1.1506229E2],"tree_param":{"num_deleted":"0","num_feature":"32","num_nodes":"23","size_leaf_vector":"1"}},{"base_weights":[7.0060515E-3,-5.525761E-1,5.8087367E-1,-2.0883827E-2,-2.659539E-1,-5.0140905E-1,7.237381E-1,-3.958611E-1,2.2073854E-2,-1.1876523E-2,-0E0,-0E0,8.7936723E-1,-1.3253648E-2,-2.8012323E-4,-5.384331E-3,5.8885473E-3,1.00398315E-2,2.0472663E-2],"categories":[],"categories_nodes":[],"categories_segments":[],"categories_sizes":[],"default_left":[0,0,0,0,0,0,0,0,0,0,0,0,0,0,0,0,0,0,0],"id":25,"left_children":[1,3,5,-1,7,9,11,13,-1,-1,-1,15,17,-1,-1,-1,-1,-1,-1],"loss_changes":[2.654839E2,8.248083E1,6.531441E1,0E0,6.3088203E1,6.1465416E0,4.2235977E1,4.381972E1,0E0,0E0,0E0,8.451546E0,2.1373367E1,0E0,0E0,0E0,0E0,0E0,0E0],"parents":[2147483647,0,0,1,1,2,2,4,4,5,5,6,6,7,7,11,11,12,12],"right_children":[2,4,6,-1,8,10,12,14,-1,-1,-1,16,18,-1,-1,-1,-1,-1,-1],"split_conditions":[2E0,0E0,0E0,-2.0883827E-2,2.794E1,1.5E1,0E0,0E0,2.2073854E-2,-1.1876523E-2,-0E0,5E0,2.2E1,-1.3253648E-2,-2.8012323E-4,-5.384331E-3,5.8885473E-3,1.00398315E-2,2.0472663E-2],"split_indices":[5,9,9,0,14,10,13,10,0,0,0,10,5,0,0,0,0,0,0],"split_type":[0,0,0,0,0,0,0,0,0,0,0,0,0,0,0,0,0,0,0],"sum_hessian":[8.2165326E2,4.1266998E2,4.0898328E2,1.080022E2,3.046678E2,4.3872128E1,3.6511115E2,2.8617728E2,1.8490492E1,2.9979391E1,1.38927355E1,6.39435E1,3.0116766E2,1.2769344E2,1.5848384E2,3.487347E1,2.9070032E1,1.9385568E2,1.07311966E2],"tree_param":{"num_deleted":"0","num_feature":"32","num_nodes":"19","size_leaf_vector":"1"}},{"base_weights":[2.2013444E-2,-1.0750414E0,2.743999E-1,-1.1986376E0,-0E0,-3.2034877E-1,6.117246E-1,-2.0865913E-2,-5.91265E-3,-4.384851E-1,1.5895972E-2,3.918565E-1,2.0057105E-2,-9.839617E-3,2.9447686E-3,1.3897561E-3,1.7636774E-2],"categories":[],"categories_nodes":[],"categories_segments":[],"categories_sizes":[],"default_left":[0,0,0,0,0,0,0,0,0,0,0,0,0,0,0,0,0],"id":26,"left_children":[1,3,5,7,-1,9,11,-1,-1,13,-1,15,-1,-1,-1,-1,-1],"loss_changes":[2.2401508E2,1.6035324E1,1.3588182E2,3.829773E0,0E0,3.6076656E1,5.3346222E1,0E0,0E0,2.641858E1,0E0,6.649261E1,0E0,0E0,0E0,0E0,0E0],"parents":[2147483647,0,0,1,1,2,2,3,3,5,5,6,6,9,9,11,11],"right_children":[2,4,6,8,-1,10,12,-1,-1,14,-1,16,-1,-1,-1,-1,-1],"split_conditions":[0E0,1E0,0E0,3.3E1,-0E0,2.286E1,1E0,-2.0865913E-2,-5.91265E-3,1E0,1.5895972E-2,1E0,2.0057105E-2,-9.839617E-3,2.9447686E-3,1.3897561E-3,1.7636774E-2],"split_indices":[9,13,10,10,0,14,9,0,0,13,0,13,0,0,0,0,0],"split_type":[0,0,0,0,0,0,0,0,0,0,0,0,0,0,0,0,0],"sum_hessian":[8.152455E2,1.4819322E2,6.6705225E2,1.299049E2,1.8288313E1,2.3734558E2,4.297067E2,1.1018007E2,1.9724833E1,2.2186987E2,1.547571E1,3.2713217E2,1.025745E2,1.7786293E2,4.4006947E1,2.343285E2,9.280368E1],"tree_param":{"num_deleted":"0","num_feature":"32","num_nodes":"17","size_leaf_vector":"1"}},{"base_weights":[-0E0,-6.1306643E-1,5.172964E-1,-8.4515315E-1,2.1373034E-1,1.6656813E-1,8.63838E-1,-9.1283417E-1,7.890646E-3,-5.1885936E-3,7.724201E-1,-1.400542E-1,5.029489E-1,2.0503572E-1,9.527312E-1,-1.6496511E-2,-1.4201333E-3,-8.978635E-3,4.2062122E-3,-0E0,1.7221782E-2,-5.979313E-3,3.5640548E-3,-0E0,1.1780456E-2,-0E0,7.4915485E-3,1.5939198E-2,-0E0],"categories":[],"categories_nodes":[],"categories_segments":[],"categories_sizes":[],"default_left":[0,0,0,0,0,0,0,0,0,0,0,0,0,0,0,0,0,0,0,0,0,0,0,0,0,0,0,0,0],"id":27,"left_children":[1,3,5,7,9,11,13,15,-1,17,19,21,23,25,27,-1,-1,-1,-1,-1,-1,-1,-1,-1,-1,-1,-1,-1,-1],"loss_changes":[2.65768E2,7.621265E1,5.115506E1,3.0072525E1,1.2986365E1,2.5809242E1,8.18544E0,2.355246E1,0E0,9.870716E0,3.2864532E0,1.0821623E1,1.3103203E1,1.8944724E0,5.3511047E0,0E0,0E0,0E0,0E0,0E0,0E0,0E0,0E0,0E0,0E0,0E0,0E0,0E0,0E0],"parents":[2147483647,0,0,1,1,2,2,3,3,4,4,5,5,6,6,7,7,9,9,10,10,11,11,12,12,13,13,14,14],"right_children":[2,4,6,8,10,12,14,16,-1,18,20,22,24,26,28,-1,-1,-1,-1,-1,-1,-1,-1,-1,-1,-1,-1,-1,-1],"split_conditions":[0E0,2.8E1,1.4E1,2.286E1,1E0,2E0,0E0,1E0,7.890646E-3,-6.8E-1,1.5733333E2,1.2E1,-3.1E-1,3.7E1,5.409824E-1,-1.6496511E-2,-1.4201333E-3,-8.978635E-3,4.2062122E-3,-0E0,1.7221782E-2,-5.979313E-3,3.5640548E-3,-0E0,1.1780456E-2,-0E0,7.4915485E-3,1.5939198E-2,-0E0],"split_indices":[5,10,5,14,13,30,13,13,0,7,3,10,7,10,24,0,0,0,0,0,0,0,0,0,0,0,0,0,0],"split_type":[0,0,0,0,0,0,0,0,0,0,0,0,0,0,0,0,0,0,0,0,0,0,0,0,0,0,0,0,0],"sum_hessian":[8.337584E2,3.7996954E2,4.5378888E2,3.002635E2,7.970607E1,2.3276823E2,2.2102066E2,2.8924377E2,1.1019717E1,5.4027615E1,2.5678453E1,1.1653747E2,1.1623077E2,3.233069E1,1.8868997E2,2.4877875E2,4.0465027E1,2.1388283E1,3.263933E1,1.0716957E1,1.4961497E1,7.7313385E1,3.922409E1,3.8857925E1,7.737284E1,1.9360146E1,1.2970542E1,1.782931E2,1.0396855E1],"tree_param":{"num_deleted":"0","num_feature":"32","num_nodes":"29","size_leaf_vector":"1"}},{"base_weights":[-0E0,-4.2748055E-1,6.718663E-1,-1.1966347E0,-1.7403595E-1,-5.6732446E-1,8.175023E-1,-2.057152E-2,-9.2130806E-4,-2.9422894E-1,2.0988598E-2,-1.3605123E-2,-0E0,-0E0,9.8335123E-1,-7.2895815E-3,1.0772176E-2,-2.5754732E-3,9.278122E-3,-0E0,1.6289478E-2],"categories":[],"categories_nodes":[],"categories_segments":[],"categories_sizes":[],"default_left":[0,0,0,0,0,0,0,0,0,0,0,0,0,0,0,0,0,0,0,0,0],"id":28,"left_children":[1,3,5,7,9,11,13,-1,-1,15,-1,-1,-1,17,19,-1,-1,-1,-1,-1,-1],"loss_changes":[2.3706793E2,9.291119E1,5.9862625E1,6.7390747E0,6.6077805E1,2.8929262E0,3.8687973E1,0E0,0E0,5.619701E1,0E0,0E0,0E0,5.353075E0,4.9564056E0,0E0,0E0,0E0,0E0,0E0,0E0],"parents":[2147483647,0,0,1,1,2,2,3,3,4,4,5,5,6,6,9,9,13,13,14,14],"right_children":[2,4,6,8,10,12,14,-1,-1,16,-1,-1,-1,18,20,-1,-1,-1,-1,-1,-1],"split_conditions":[7E0,0E0,0E0,1E0,2.286E1,0E0,0E0,-2.057152E-2,-9.2130806E-4,1E0,2.0988598E-2,-1.3605123E-2,-0E0,2.9E1,-1.9E0,-7.2895815E-3,1.0772176E-2,-2.5754732E-3,9.278122E-3,-0E0,1.6289478E-2],"split_indices":[5,9,9,13,14,14,13,0,0,9,0,0,0,5,7,0,0,0,0,0,0],"split_type":[0,0,0,0,0,0,0,0,0,0,0,0,0,0,0,0,0,0,0,0,0],"sum_hessian":[8.2164655E2,5.0371054E2,3.17936E2,1.1891103E2,3.847995E2,2.9948856E1,2.8798715E2,1.0705041E2,1.1860625E1,3.6011206E2,2.4687464E1,1.6071161E1,1.3877694E1,4.967285E1,2.3831432E2,3.1324265E2,4.6869396E1,3.9286366E1,1.0386485E1,1.0700861E1,2.2761345E2],"tree_param":{"num_deleted":"0","num_feature":"32","num_nodes":"21","size_leaf_vector":"1"}},{"base_weights":[3.8275626E-3,-6.112469E-1,5.1724124E-1,-7.9934394E-1,1.8552744E-1,-6.2325245E-1,6.7243737E-1,-9.346657E-1,3.3093372E-1,-1.412392E-1,5.423944E-1,-1.3202699E-2,-0E0,-6.084305E-2,8.296639E-1,-1.9407678E-2,-9.149768E-3,-0E0,9.276863E-3,-6.2232465E-3,-0E0,-0E0,1.1561724E-2,-7.3013017E-3,1.834188E-3,7.827348E-3,1.8165343E-2],"categories":[],"categories_nodes":[],"categories_segments":[],"categories_sizes":[],"default_left":[0,0,0,0,0,0,0,0,0,0,0,0,0,0,0,0,0,0,0,0,0,0,0,0,0,0,0],"id":29,"left_children":[1,3,5,7,9,11,13,15,17,19,21,-1,-1,23,25,-1,-1,-1,-1,-1,-1,-1,-1,-1,-1,-1,-1],"loss_changes":[2.5791052E2,5.7960358E1,8.068159E1,4.933145E1,9.700187E0,8.260202E0,4.9117218E1,1.9081863E1,3.6585438E0,2.3252482E0,3.1219082E0,0E0,0E0,6.1672235E0,2.7055115E1,0E0,0E0,0E0,0E0,0E0,0E0,0E0,0E0,0E0,0E0,0E0,0E0],"parents":[2147483647,0,0,1,1,2,2,3,3,4,4,5,5,6,6,7,7,8,8,9,9,10,10,13,13,14,14],"right_children":[2,4,6,8,10,12,14,16,18,20,22,-1,-1,24,26,-1,-1,-1,-1,-1,-1,-1,-1,-1,-1,-1,-1],"split_conditions":[0E0,1E0,0E0,1E0,1.3411765E2,1E0,0E0,-1.3E1,0E0,2E0,-8E-1,-1.3202699E-2,-0E0,1E1,1.4E1,-1.9407678E-2,-9.149768E-3,-0E0,9.276863E-3,-6.2232465E-3,-0E0,-0E0,1.1561724E-2,-7.3013017E-3,1.834188E-3,7.827348E-3,1.8165343E-2],"split_indices":[5,13,9,9,3,13,13,5,30,17,7,0,0,5,5,0,0,0,0,0,0,0,0,0,0,0,0],"split_type":[0,0,0,0,0,0,0,0,0,0,0,0,0,0,0,0,0,0,0,0,0,0,0,0,0,0,0],"sum_hessian":[8.1312054E2,3.6633572E2,4.467848E2,3.0025314E2,6.608258E1,4.9703613E1,3.9708118E2,2.715415E2,2.8711632E1,2.9641035E1,3.6441544E1,3.95897E1,1.0113915E1,6.606362E1,3.3101758E2,1.451164E2,1.2642511E2,1.00116825E1,1.869995E1,1.7278484E1,1.2362551E1,1.0884988E1,2.5556557E1,2.5866488E1,4.0197136E1,1.6483063E2,1.6618694E2],"tree_param":{"num_deleted":"0","num_feature":"32","num_nodes":"27","size_leaf_vector":"1"}},{"base_weights":[-0E0,-3.9124003E-1,7.8198045E-1,-1.162326E0,-1.330774E-1,-7.235579E-3,9.1106284E-1,-1.9983917E-2,-1.996171E-3,-3.0042186E-1,7.8238827E-1,3.249112E-1,1.0667032E0,-8.858261E-3,8.277537E-3,-0E0,1.5976014E-2,-0E0,1.0742588E-2,5.1273573E-3,1.8492639E-2],"categories":[],"categories_nodes":[],"categories_segments":[],"categories_sizes":[],"default_left":[0,0,0,0,0,0,0,0,0,0,0,0,0,0,0,0,0,0,0,0,0],"id":30,"left_children":[1,3,5,7,9,-1,11,-1,-1,13,15,17,19,-1,-1,-1,-1,-1,-1,-1,-1],"loss_changes":[2.5428069E2,1.0611186E2,4.663466E1,6.389923E0,6.394182E1,0E0,1.6946594E1,0E0,0E0,7.6139595E1,1.1752003E1,7.5312057E0,6.133713E0,0E0,0E0,0E0,0E0,0E0,0E0,0E0,0E0],"parents":[2147483647,0,0,1,1,2,2,3,3,4,4,6,6,9,9,10,10,11,11,12,12],"right_children":[2,4,6,8,10,-1,12,-1,-1,14,16,18,20,-1,-1,-1,-1,-1,-1,-1,-1],"split_conditions":[1E1,0E0,0E0,1E0,1E0,-7.235579E-3,-5E0,-1.9983917E-2,-1.996171E-3,1E0,-5E0,3E0,0E0,-8.858261E-3,8.277537E-3,-0E0,1.5976014E-2,-0E0,1.0742588E-2,5.1273573E-3,1.8492639E-2],"split_indices":[5,9,9,13,9,0,10,0,0,13,30,30,13,0,0,0,0,0,0,0,0],"split_type":[0,0,0,0,0,0,0,0,0,0,0,0,0,0,0,0,0,0,0,0,0],"sum_hessian":[8.307786E2,5.574445E2,2.7333408E2,1.3401949E2,4.2342502E2,2.2521585E1,2.508125E2,1.2003429E2,1.39852085E1,3.6286887E2,6.0556145E1,5.9322487E1,1.9149002E2,2.8138733E2,8.148156E1,1.2357857E1,4.8198288E1,3.0447968E1,2.887452E1,2.5817535E1,1.6567249E2],"tree_param":{"num_deleted":"0","num_feature":"32","num_nodes":"21","size_leaf_vector":"1"}},{"base_weights":[-1.631778E-2,-5.8140075E-1,4.4407716E-1,-7.90208E-1,3.2421634E-1,-6.4231783E-1,5.987169E-1,-9.296084E-1,3.6363953E-1,-3.093583E-2,6.911955E-1,-8.273938E-1,-0E0,3.8522804E-1,1.9314228E-2,-1.6058935E-2,7.585584E-3,-0E0,8.560977E-3,-0E0,-3.8258897E-3,-0E0,1.5833994E-2,-1.599475E-2,-0E0,3.3510287E-4,1.618806E-2],"categories":[],"categories_nodes":[],"categories_segments":[],"categories_sizes":[],"default_left":[0,0,0,0,0,0,0,0,0,0,0,0,0,0,0,0,0,0,0,0,0,0,0,0,0,0,0],"id":31,"left_children":[1,3,5,7,9,11,13,15,17,19,21,23,-1,25,-1,-1,-1,-1,-1,-1,-1,-1,-1,-1,-1,-1,-1],"loss_changes":[2.1576352E2,7.3329926E1,7.671432E1,5.2666107E1,1.15113945E1,7.809126E0,4.4637695E1,3.1609055E1,1.8026075E0,9.6142995E-1,4.514881E0,3.2329903E0,0E0,6.526337E1,0E0,0E0,0E0,0E0,0E0,0E0,0E0,0E0,0E0,0E0,0E0,0E0,0E0],"parents":[2147483647,0,0,1,1,2,2,3,3,4,4,5,5,6,6,7,7,8,8,9,9,10,10,11,11,13,13],"right_children":[2,4,6,8,10,12,14,16,18,20,22,24,-1,26,-1,-1,-1,-1,-1,-1,-1,-1,-1,-1,-1,-1,-1],"split_conditions":[0E0,1E0,0E0,1E0,1.294E2,1E0,1E0,2.032E1,0E0,0E0,-5E-1,1.5E1,-0E0,4E1,1.9314228E-2,-1.6058935E-2,7.585584E-3,-0E0,8.560977E-3,-0E0,-3.8258897E-3,-0E0,1.5833994E-2,-1.599475E-2,-0E0,3.3510287E-4,1.618806E-2],"split_indices":[5,13,9,9,4,13,9,14,14,16,7,10,0,10,0,0,0,0,0,0,0,0,0,0,0,0,0],"split_type":[0,0,0,0,0,0,0,0,0,0,0,0,0,0,0,0,0,0,0,0,0,0,0,0,0,0,0],"sum_hessian":[8.226033E2,3.7276828E2,4.49835E2,3.0660553E2,6.616274E1,5.2034874E1,3.978001E2,2.769285E2,2.9677048E1,2.9421999E1,3.674075E1,4.1825397E1,1.0209476E1,3.017882E2,9.6011894E1,2.6653778E2,1.0390706E1,1.0887017E1,1.879003E1,1.4393989E1,1.5028009E1,1.5352686E1,2.1388062E1,3.1237469E1,1.0587929E1,1.960802E2,1.05708015E2],"tree_param":{"num_deleted":"0","num_feature":"32","num_nodes":"27","size_leaf_vector":"1"}},{"base_weights":[7.1005356E-3,-5.7606053E-1,5.0343037E-1,-7.786393E-1,2.613562E-1,2.6572067E-1,9.7073555E-1,-8.56948E-1,1.1070983E-2,-0E0,1.2802412E-2,1.3709836E-1,2.0449018E-2,1.0309768E0,-0E0,-1.5191616E-2,-0E0,-4.4929385E-3,1.9241967E-3,-3.0770765E-3,6.236925E-3,6.8996623E-3,1.8406052E-2],"categories":[],"categories_nodes":[],"categories_segments":[],"categories_sizes":[],"default_left":[0,0,0,0,0,0,0,0,0,0,0,0,0,0,0,0,0,0,0,0,0,0,0],"id":32,"left_children":[1,3,5,7,9,11,13,15,-1,17,-1,19,-1,21,-1,-1,-1,-1,-1,-1,-1,-1,-1],"loss_changes":[2.3509875E2,6.529328E1,4.384571E1,3.685063E1,1.1488064E1,3.3453506E1,6.1352234E0,2.606157E1,0E0,1.9904158E0,0E0,2.3681557E1,0E0,2.1484222E0,0E0,0E0,0E0,0E0,0E0,0E0,0E0,0E0,0E0],"parents":[2147483647,0,0,1,1,2,2,3,3,4,4,5,5,6,6,7,7,9,9,11,11,13,13],"right_children":[2,4,6,8,10,12,14,16,-1,18,-1,20,-1,22,-1,-1,-1,-1,-1,-1,-1,-1,-1],"split_conditions":[0E0,1E0,3.5E1,2.286E1,2.9E1,2.032E1,5.326541E-1,5.1E1,1.1070983E-2,-5.4E-1,1.2802412E-2,-3E-2,2.0449018E-2,-8E-1,-0E0,-1.5191616E-2,-0E0,-4.4929385E-3,1.9241967E-3,-3.0770765E-3,6.236925E-3,6.8996623E-3,1.8406052E-2],"split_indices":[5,13,10,14,10,14,24,10,0,7,0,7,0,7,0,0,0,0,0,0,0,0,0],"split_type":[0,0,0,0,0,0,0,0,0,0,0,0,0,0,0,0,0,0,0,0,0,0,0],"sum_hessian":[8.0847144E2,3.6799725E2,4.404742E2,3.0013226E2,6.7864975E1,2.9985526E2,1.4061894E2,2.8836032E2,1.1771959E1,4.4723946E1,2.3141027E1,2.7174643E2,2.8108828E1,1.301693E2,1.044964E1,2.6413458E2,2.4225714E1,1.7522018E1,2.720193E1,1.1153309E2,1.6021335E2,2.848498E1,1.0168432E2],"tree_param":{"num_deleted":"0","num_feature":"32","num_nodes":"23","size_leaf_vector":"1"}},{"base_weights":[5.3429804E-3,-5.491736E-1,4.6689883E-1,-7.6284194E-1,2.2614443E-1,-6.334799E-1,6.187297E-1,-9.101849E-1,5.2270067E-1,-0E0,1.3118578E-2,-1.2986387E-2,-0E0,2.61523E-1,9.498159E-1,-1.6686201E-2,-6.546428E-4,-0E0,1.15465205E-2,-7.1993023E-3,3.4244824E-3,1.0962599E-3,1.4431656E-2,3.0653488E-3,1.7027495E-2],"categories":[],"categories_nodes":[],"categories_segments":[],"categories_sizes":[],"default_left":[0,0,0,0,0,0,0,0,0,0,0,0,0,0,0,0,0,0,0,0,0,0,0,0,0],"id":33,"left_children":[1,3,5,7,9,11,13,15,17,19,-1,-1,-1,21,23,-1,-1,-1,-1,-1,-1,-1,-1,-1,-1],"loss_changes":[2.091525E2,6.3429764E1,7.612193E1,5.809471E1,1.2121952E1,5.708725E0,4.208464E1,2.6131088E1,1.5851107E0,6.0904827E0,0E0,0E0,0E0,2.0983805E1,1.1936371E1,0E0,0E0,0E0,0E0,0E0,0E0,0E0,0E0,0E0,0E0],"parents":[2147483647,0,0,1,1,2,2,3,3,4,4,5,5,6,6,7,7,8,8,9,9,13,13,14,14],"right_children":[2,4,6,8,10,12,14,16,18,20,-1,-1,-1,22,24,-1,-1,-1,-1,-1,-1,-1,-1,-1,-1],"split_conditions":[0E0,2.6E1,0E0,1E0,1E0,2.6E1,1.4E1,1E0,6.004706E1,-6.8E-1,1.3118578E-2,-1.2986387E-2,-0E0,1E0,0E0,-1.6686201E-2,-6.546428E-4,-0E0,1.15465205E-2,-7.1993023E-3,3.4244824E-3,1.0962599E-3,1.4431656E-2,3.0653488E-3,1.7027495E-2],"split_indices":[5,10,9,9,13,10,5,13,4,7,0,0,0,9,13,0,0,0,0,0,0,0,0,0,0],"split_type":[0,0,0,0,0,0,0,0,0,0,0,0,0,0,0,0,0,0,0,0,0,0,0,0,0],"sum_hessian":[8.1368097E2,3.656449E2,4.4803607E2,2.905506E2,7.509432E1,5.0354755E1,3.976813E2,2.639669E2,2.6583698E1,5.3469463E1,2.1624855E1,3.8531578E1,1.1823176E1,1.9889888E2,1.9878244E2,2.2511784E2,3.884904E1,1.0667225E1,1.5916474E1,1.9601038E1,3.3868427E1,1.5936525E2,3.953363E1,3.0970076E1,1.6781236E2],"tree_param":{"num_deleted":"0","num_feature":"32","num_nodes":"25","size_leaf_vector":"1"}},{"base_weights":[-2.847585E-3,-6.30929E-1,3.9923668E-1,-8.3208627E-1,8.9803636E-2,-7.041858E-1,5.579085E-1,-9.683216E-1,6.946975E-3,-9.237369E-3,3.3319992E-1,-1.4987823E-2,-0E0,-0E0,7.930593E-1,-1.7761584E-2,-1.813063E-3,-0E0,1.040917E-2,-2.6791058E-3,1.0782327E-2,7.190895E-5,1.4550601E-2],"categories":[],"categories_nodes":[],"categories_segments":[],"categories_sizes":[],"default_left":[0,0,0,0,0,0,0,0,0,0,0,0,0,0,0,0,0,0,0,0,0,0,0],"id":34,"left_children":[1,3,5,7,9,11,13,15,-1,-1,17,-1,-1,19,21,-1,-1,-1,-1,-1,-1,-1,-1],"loss_changes":[2.0503943E2,4.9303E1,8.6013535E1,4.6832626E1,1.0493125E1,9.304443E0,5.859088E1,2.2924469E1,0E0,0E0,7.4143806E0,0E0,0E0,1.3383661E1,2.4342285E1,0E0,0E0,0E0,0E0,0E0,0E0,0E0,0E0],"parents":[2147483647,0,0,1,1,2,2,3,3,4,4,5,5,6,6,7,7,10,10,13,13,14,14],"right_children":[2,4,6,8,10,12,14,16,-1,-1,18,-1,-1,20,22,-1,-1,-1,-1,-1,-1,-1,-1],"split_conditions":[-3E0,2.8E1,0E0,1E0,0E0,2.3E1,-5E0,1E0,6.946975E-3,-9.237369E-3,5.934357E1,-1.4987823E-2,-0E0,1E0,0E0,-1.7761584E-2,-1.813063E-3,-0E0,1.040917E-2,-2.6791058E-3,1.0782327E-2,7.190895E-5,1.4550601E-2],"split_indices":[5,10,9,9,9,10,10,13,0,0,1,0,0,9,13,0,0,0,0,0,0,0,0],"split_type":[0,0,0,0,0,0,0,0,0,0,0,0,0,0,0,0,0,0,0,0,0,0,0],"sum_hessian":[8.036576E2,3.168673E2,4.8679025E2,2.5159483E2,6.5272484E1,5.7141193E1,4.2964908E2,2.303792E2,2.1215633E1,1.23864565E1,5.288603E1,4.1992603E1,1.5148587E1,1.25056076E2,3.04593E2,1.9348373E2,3.689546E1,2.3150581E1,2.9735445E1,1.04465065E2,2.0591015E1,4.333038E1,2.612626E2],"tree_param":{"num_deleted":"0","num_feature":"32","num_nodes":"23","size_leaf_vector":"1"}},{"base_weights":[-3.2438573E-3,-5.5198336E-1,4.3908903E-1,-7.5950885E-1,3.059495E-1,-5.845752E-1,5.8308566E-1,-8.9635485E-1,3.9927134E-1,-0E0,1.4109703E-2,-1.3047995E-2,-0E0,-0E0,7.83703E-1,-1.681834E-2,-1.9158892E-3,-0E0,9.161368E-3,-4.8029674E-3,2.833401E-3,-1.8488641E-3,1.2045564E-2,1.1814403E-3,1.4210382E-2],"categories":[],"categories_nodes":[],"categories_segments":[],"categories_sizes":[],"default_left":[0,0,0,0,0,0,0,0,0,0,0,0,0,0,0,0,0,0,0,0,0,0,0,0,0],"id":35,"left_children":[1,3,5,7,9,11,13,15,17,19,-1,-1,-1,21,23,-1,-1,-1,-1,-1,-1,-1,-1,-1,-1],"loss_changes":[2.0061772E2,6.851139E1,6.7544846E1,5.0923584E1,1.3626101E1,7.260809E0,4.4002472E1,2.801207E1,1.792665E0,2.7783632E0,0E0,0E0,0E0,1.2140585E1,1.7688675E1,0E0,0E0,0E0,0E0,0E0,0E0,0E0,0E0,0E0,0E0],"parents":[2147483647,0,0,1,1,2,2,3,3,4,4,5,5,6,6,7,7,8,8,9,9,13,13,14,14],"right_children":[2,4,6,8,10,12,14,16,18,20,-1,-1,-1,22,24,-1,-1,-1,-1,-1,-1,-1,-1,-1,-1],"split_conditions":[0E0,1E0,0E0,1E0,2.6E1,1.7E1,-1.1E1,2.8E1,0E0,4.2985E1,1.4109703E-2,-1.3047995E-2,-0E0,1E0,0E0,-1.681834E-2,-1.9158892E-3,-0E0,9.161368E-3,-4.8029674E-3,2.833401E-3,-1.8488641E-3,1.2045564E-2,1.1814403E-3,1.4210382E-2],"split_indices":[5,13,9,9,10,10,10,10,30,2,0,0,0,9,13,0,0,0,0,0,0,0,0,0,0],"split_type":[0,0,0,0,0,0,0,0,0,0,0,0,0,0,0,0,0,0,0,0,0,0,0,0,0],"sum_hessian":[8.200049E2,3.6958478E2,4.504201E2,3.0141208E2,6.817268E1,5.1372173E1,3.990479E2,2.730124E2,2.83997E1,4.4454056E1,2.3718628E1,3.6274925E1,1.5097251E1,1.0756717E2,2.9148077E2,2.2320667E2,4.9805717E1,1.0280671E1,1.811903E1,1.8800257E1,2.56538E1,9.064536E1,1.6921803E1,4.2206417E1,2.4927434E2],"tree_param":{"num_deleted":"0","num_feature":"32","num_nodes":"25","size_leaf_vector":"1"}},{"base_weights":[-8.901863E-3,-3.823037E-1,6.7993283E-1,-1.1162362E0,-1.3696316E-1,-4.664347E-1,8.140024E-1,-1.94266E-2,-4.7705145E-4,-3.275363E-1,5.803217E-1,-1.026021E-2,-0E0,6.431541E-2,9.505783E-1,-8.245392E-3,1.0540658E-2,-1.0905834E-3,1.3350257E-2,-1.2368633E-3,7.19732E-3,4.6370993E-3,1.7447326E-2],"categories":[],"categories_nodes":[],"categories_segments":[],"categories_sizes":[],"default_left":[0,0,0,0,0,0,0,0,0,0,0,0,0,0,0,0,0,0,0,0,0,0,0],"id":36,"left_children":[1,3,5,7,9,11,13,-1,-1,15,17,-1,-1,19,21,-1,-1,-1,-1,-1,-1,-1,-1],"loss_changes":[2.0722627E2,9.007297E1,4.5445023E1,8.559326E0,5.4570545E1,9.394202E-1,2.2137527E1,0E0,0E0,5.9999146E1,1.638308E1,0E0,0E0,4.02566E0,1.3334274E1,0E0,0E0,0E0,0E0,0E0,0E0,0E0,0E0],"parents":[2147483647,0,0,1,1,2,2,3,3,4,4,5,5,6,6,9,9,10,10,13,13,14,14],"right_children":[2,4,6,8,10,12,14,-1,-1,16,18,-1,-1,20,22,-1,-1,-1,-1,-1,-1,-1,-1],"split_conditions":[9E0,0E0,0E0,1E0,4.1E1,1.3051E2,0E0,-1.94266E-2,-4.7705145E-4,1E0,0E0,-1.026021E-2,-0E0,3.5E1,-1.2E1,-8.245392E-3,1.0540658E-2,-1.0905834E-3,1.3350257E-2,-1.2368633E-3,7.19732E-3,4.6370993E-3,1.7447326E-2],"split_indices":[5,9,9,13,10,2,13,0,0,9,13,0,0,10,10,0,0,0,0,0,0,0,0],"split_type":[0,0,0,0,0,0,0,0,0,0,0,0,0,0,0,0,0,0,0,0,0,0,0],"sum_hessian":[8.0533124E2,5.2652704E2,2.7880423E2,1.25894684E2,4.0063232E2,2.5586433E1,2.5321779E2,1.121659E2,1.3728784E1,3.2176923E2,7.886309E1,1.4755048E1,1.0831386E1,4.3880096E1,2.0933769E2,2.7465018E2,4.7119057E1,1.8362988E1,6.0500103E1,2.619238E1,1.7687714E1,4.2272213E1,1.6706549E2],"tree_param":{"num_deleted":"0","num_feature":"32","num_nodes":"23","size_leaf_vector":"1"}},{"base_weights":[4.5046326E-2,-9.698222E-1,2.7292898E-1,-1.095226E0,-0E0,-2.719182E-1,5.832851E-1,-1.152592E0,-2.1906642E-3,-3.895935E-1,1.7080408E-2,3.7683427E-1,1.9345582E-2,-1.9500488E-2,-3.388525E-3,-9.337727E-3,4.5806384E-3,-1.3893931E-3,1.2045215E-2],"categories":[],"categories_nodes":[],"categories_segments":[],"categories_sizes":[],"default_left":[0,0,0,0,0,0,0,0,0,0,0,0,0,0,0,0,0,0,0],"id":37,"left_children":[1,3,5,7,-1,9,11,13,-1,15,-1,17,-1,-1,-1,-1,-1,-1,-1],"loss_changes":[1.8213654E2,1.676677E1,1.1237311E2,1.6429443E0,0E0,3.5381733E1,4.7315994E1,9.071045E-1,0E0,3.0278519E1,0E0,5.9300865E1,0E0,0E0,0E0,0E0,0E0,0E0,0E0],"parents":[2147483647,0,0,1,1,2,2,3,3,5,5,6,6,7,7,9,9,11,11],"right_children":[2,4,6,8,-1,10,12,14,-1,16,-1,18,-1,-1,-1,-1,-1,-1,-1],"split_conditions":[0E0,1E0,0E0,1.3E1,-0E0,2.286E1,1E0,4.1E1,-2.1906642E-3,1E0,1.7080408E-2,2.8E1,1.9345582E-2,-1.9500488E-2,-3.388525E-3,-9.337727E-3,4.5806384E-3,-1.3893931E-3,1.2045215E-2],"split_indices":[9,13,10,30,0,14,9,10,0,13,0,10,0,0,0,0,0,0,0],"split_type":[0,0,0,0,0,0,0,0,0,0,0,0,0,0,0,0,0,0,0],"sum_hessian":[7.9400635E2,1.4110034E2,6.52906E2,1.2410454E2,1.6995808E1,2.3256987E2,4.2033615E2,1.128737E2,1.1230832E1,2.179426E2,1.4627278E1,3.2331555E2,9.7020615E1,1.0118247E2,1.1691236E1,1.7413753E2,4.3805065E1,1.4081389E2,1.8250166E2],"tree_param":{"num_deleted":"0","num_feature":"32","num_nodes":"19","size_leaf_vector":"1"}},{"base_weights":[2.2987654E-2,-9.726924E-1,2.4761514E-1,-1.0966867E0,-0E0,-3.0726397E-1,5.60827E-1,-1.9012997E-2,-4.5544896E-3,-4.2112237E-1,1.657896E-2,3.563773E-1,1.8560035E-2,-8.737275E-3,4.414887E-3,-3.2853085E-4,1.4412652E-2],"categories":[],"categories_nodes":[],"categories_segments":[],"categories_sizes":[],"default_left":[0,0,0,0,0,0,0,0,0,0,0,0,0,0,0,0,0],"id":38,"left_children":[1,3,5,7,-1,9,11,-1,-1,13,-1,15,-1,-1,-1,-1,-1],"loss_changes":[1.7643675E2,1.4608551E1,1.1551671E2,2.750946E0,0E0,3.444698E1,4.514244E1,0E0,0E0,2.04268E1,0E0,6.9908066E1,0E0,0E0,0E0,0E0,0E0],"parents":[2147483647,0,0,1,1,2,2,3,3,5,5,6,6,9,9,11,11],"right_children":[2,4,6,8,-1,10,12,-1,-1,14,-1,16,-1,-1,-1,-1,-1],"split_conditions":[0E0,1E0,0E0,3.3E1,-0E0,2.286E1,1E0,-1.9012997E-2,-4.5544896E-3,1E0,1.657896E-2,4.8E1,1.8560035E-2,-8.737275E-3,4.414887E-3,-3.2853085E-4,1.4412652E-2],"split_indices":[9,13,10,10,0,14,9,0,0,9,0,10,0,0,0,0,0],"split_type":[0,0,0,0,0,0,0,0,0,0,0,0,0,0,0,0,0],"sum_hessian":[7.9636755E2,1.4200018E2,6.543674E2,1.2334637E2,1.8653816E1,2.3170358E2,4.2266382E2,1.0582931E2,1.7517057E1,2.1771144E2,1.3992139E1,3.2250345E2,1.0016035E2,1.8988014E2,2.7831305E1,1.8757097E2,1.349325E2],"tree_param":{"num_deleted":"0","num_feature":"32","num_nodes":"17","size_leaf_vector":"1"}},{"base_weights":[-0E0,-5.467264E-1,4.550837E-1,-7.3987585E-1,2.7532384E-1,2.389463E-1,1.1647953E0,-8.671306E-1,3.2957208E-1,-0E0,1.3990022E-2,-8.400701E-2,7.641563E-1,2.0077446E-2,1.1811306E-3,-1.5165077E-2,-0E0,-0E0,8.470336E-3,-3.760985E-3,2.0060537E-3,-4.0847063E-3,8.439982E-3,-0E0,1.4445217E-2],"categories":[],"categories_nodes":[],"categories_segments":[],"categories_sizes":[],"default_left":[0,0,0,0,0,0,0,0,0,0,0,0,0,0,0,0,0,0,0,0,0,0,0,0,0],"id":39,"left_children":[1,3,5,7,9,11,13,15,17,19,-1,21,23,-1,-1,-1,-1,-1,-1,-1,-1,-1,-1,-1,-1],"loss_changes":[1.9592764E2,5.9386757E1,5.943035E1,4.298413E1,1.279868E1,5.945466E1,3.8343353E0,1.8093628E1,1.9132097E0,1.637739E0,0E0,2.0635603E1,1.158754E1,0E0,0E0,0E0,0E0,0E0,0E0,0E0,0E0,0E0,0E0,0E0,0E0],"parents":[2147483647,0,0,1,1,2,2,3,3,4,4,5,5,6,6,7,7,8,8,9,9,11,11,12,12],"right_children":[2,4,6,8,10,12,14,16,18,20,-1,22,24,-1,-1,-1,-1,-1,-1,-1,-1,-1,-1,-1,-1],"split_conditions":[0E0,1E0,1E0,1E0,3E1,2.6E1,5.3129566E-1,5.1E1,6.004706E1,1.3198718E2,1.3990022E-2,1E0,0E0,2.0077446E-2,1.1811306E-3,-1.5165077E-2,-0E0,-0E0,8.470336E-3,-3.760985E-3,2.0060537E-3,-4.0847063E-3,8.439982E-3,-0E0,1.4445217E-2],"split_indices":[5,13,9,9,10,10,24,10,4,4,0,13,13,0,0,0,0,0,0,0,0,0,0,0,0],"split_type":[0,0,0,0,0,0,0,0,0,0,0,0,0,0,0,0,0,0,0,0,0,0,0,0,0],"sum_hessian":[7.8181915E2,3.574085E2,4.2441064E2,2.933732E2,6.4035324E1,3.3189706E2,9.2513596E1,2.6577747E2,2.759574E1,4.3012516E1,2.102281E1,2.0223816E2,1.296589E2,8.2018936E1,1.0494655E1,2.4291466E2,2.2862787E1,1.1471779E1,1.612396E1,2.018974E1,2.2822775E1,1.6399484E2,3.8243317E1,2.2912224E1,1.0674668E2],"tree_param":{"num_deleted":"0","num_feature":"32","num_nodes":"25","size_leaf_vector":"1"}},{"base_weights":[-1.8389948E-2,-5.8277494E-1,4.1231567E-1,-6.782356E-1,1.5945278E-2,1.9551753E-1,1.8445605E-2,-8.428789E-1,1.7189331E-2,-1.0574058E-1,7.9537094E-1,-1.5508645E-2,3.764552E-3,-2.870022E-3,1.0215431E-2,-5.0323284E-3,9.892012E-3,1.3861586E-2,-0E0],"categories":[],"categories_nodes":[],"categories_segments":[],"categories_sizes":[],"default_left":[0,0,0,0,0,0,0,0,0,0,0,0,0,0,0,0,0,0,0],"id":40,"left_children":[1,3,5,7,-1,9,-1,11,13,15,17,-1,-1,-1,-1,-1,-1,-1,-1],"loss_changes":[1.9582188E2,5.330597E1,6.66464E1,4.1551605E1,0E0,6.717374E1,0E0,4.04485E1,9.576057E0,3.4671852E1,6.7298584E0,0E0,0E0,0E0,0E0,0E0,0E0,0E0,0E0],"parents":[2147483647,0,0,1,1,2,2,3,3,5,5,7,7,8,8,9,9,10,10],"right_children":[2,4,6,8,-1,10,-1,12,14,16,18,-1,-1,-1,-1,-1,-1,-1,-1],"split_conditions":[-1E0,2.286E1,1E0,1E0,1.5945278E-2,3.5E1,1.8445605E-2,1E0,3.1E1,1E0,5.316925E-1,-1.5508645E-2,3.764552E-3,-2.870022E-3,1.0215431E-2,-5.0323284E-3,9.892012E-3,1.3861586E-2,-0E0],"split_indices":[5,14,9,13,0,10,0,9,10,13,24,0,0,0,0,0,0,0,0],"split_type":[0,0,0,0,0,0,0,0,0,0,0,0,0,0,0,0,0,0,0],"sum_hessian":[7.98177E2,3.4896216E2,4.4921484E2,3.3261752E2,1.6344664E1,3.5363226E2,9.558257E1,2.7299127E2,5.9626244E1,2.3245537E2,1.2117691E2,2.4801938E2,2.497189E1,4.188371E1,1.7742535E1,1.856158E2,4.683957E1,1.110559E2,1.0121014E1],"tree_param":{"num_deleted":"0","num_feature":"32","num_nodes":"19","size_leaf_vector":"1"}},{"base_weights":[7.47478E-3,-5.259427E-1,4.6803936E-1,-1.8539093E-2,-2.7075005E-1,-4.955198E-1,6.006567E-1,-3.8036054E-1,1.8389015E-2,-1.1480798E-2,-0E0,4.0498066E-1,1.8118268E-2,-1.1637914E-2,-1.5820326E-4,1.7942681E-3,1.5538551E-2],"categories":[],"categories_nodes":[],"categories_segments":[],"categories_sizes":[],"default_left":[0,0,0,0,0,0,0,0,0,0,0,0,0,0,0,0,0],"id":41,"left_children":[1,3,5,-1,7,9,11,13,-1,-1,-1,15,-1,-1,-1,-1,-1],"loss_changes":[1.9630125E2,5.286406E1,5.645343E1,0E0,3.9856728E1,5.523528E0,3.299794E1,2.9671688E1,0E0,0E0,0E0,4.3651028E1,0E0,0E0,0E0,0E0,0E0],"parents":[2147483647,0,0,1,1,2,2,4,4,5,5,6,6,7,7,11,11],"right_children":[2,4,6,-1,8,10,12,14,-1,-1,-1,16,-1,-1,-1,-1,-1],"split_conditions":[0E0,0E0,0E0,-1.8539093E-2,2.794E1,1.5E1,1E0,0E0,1.8389015E-2,-1.1480798E-2,-0E0,4.6E1,1.8118268E-2,-1.1637914E-2,-1.5820326E-4,1.7942681E-3,1.5538551E-2],"split_indices":[5,9,9,0,14,10,9,30,0,0,0,10,0,0,0,0,0],"split_type":[0,0,0,0,0,0,0,0,0,0,0,0,0,0,0,0,0],"sum_hessian":[7.951938E2,3.644465E2,4.3074728E2,9.8206474E1,2.6624002E2,4.783434E1,3.8291293E2,2.5125749E2,1.4982528E1,3.2400486E1,1.5433851E1,2.8800552E2,9.490742E1,1.2340724E2,1.2785024E2,1.9596242E2,9.20431E1],"tree_param":{"num_deleted":"0","num_feature":"32","num_nodes":"17","size_leaf_vector":"1"}},{"base_weights":[6.1550275E-3,-4.55203E-1,4.9766624E-1,-1.7889418E-2,-2.1720988E-1,2.8766915E-1,1.8150477E-2,-3.2457653E-1,1.8483471E-2,-6.823342E-2,7.7278763E-1,-1.1343252E-2,-9.433077E-5,-4.096867E-3,9.2577E-3,-0E0,1.3336224E-2],"categories":[],"categories_nodes":[],"categories_segments":[],"categories_sizes":[],"default_left":[0,0,0,0,0,0,0,0,0,0,0,0,0,0,0,0,0],"id":42,"left_children":[1,3,5,-1,7,9,-1,11,-1,13,15,-1,-1,-1,-1,-1,-1],"loss_changes":[1.7946379E2,5.7876015E1,4.5381104E1,0E0,4.24789E1,5.4347958E1,0E0,3.226082E1,0E0,1.9673553E1,5.202217E0,0E0,0E0,0E0,0E0,0E0,0E0],"parents":[2147483647,0,0,1,1,2,2,4,4,5,5,7,7,9,9,10,10],"right_children":[2,4,6,-1,8,10,-1,12,-1,14,16,-1,-1,-1,-1,-1,-1],"split_conditions":[2E0,0E0,1E0,-1.7889418E-2,2.794E1,2.5E1,1.8150477E-2,-1E0,1.8483471E-2,1E0,0E0,-1.1343252E-2,-9.433077E-5,-4.096867E-3,9.2577E-3,-0E0,1.3336224E-2],"split_indices":[5,9,9,0,14,10,0,30,0,13,9,0,0,0,0,0,0],"split_type":[0,0,0,0,0,0,0,0,0,0,0,0,0,0,0,0,0],"sum_hessian":[7.8596387E2,4.0148862E2,3.8447528E2,9.968176E1,3.0180685E2,2.9605652E2,8.841876E1,2.8415237E2,1.7654472E1,1.6739201E2,1.286645E2,1.2222076E2,1.6193163E2,1.3544885E2,3.194316E1,1.0562296E1,1.1810221E2],"tree_param":{"num_deleted":"0","num_feature":"32","num_nodes":"17","size_leaf_vector":"1"}},{"base_weights":[5.5186017E-3,-3.14448E-1,6.610928E-1,-1.0349874E0,-9.4596066E-2,-3.3602506E-1,7.6871914E-1,-1.7816275E-2,-9.338013E-4,-5.6238025E-1,1.5738256E-1,-8.333265E-3,-0E0,1.01628594E-1,8.933156E-1,-1.1460712E-2,-0E0,-1.931046E-3,1.0386388E-2,-0E0,7.228208E-3,-0E0,1.5082421E-2],"categories":[],"categories_nodes":[],"categories_segments":[],"categories_sizes":[],"default_left":[0,0,0,0,0,0,0,0,0,0,0,0,0,0,0,0,0,0,0,0,0,0,0],"id":43,"left_children":[1,3,5,7,9,11,13,-1,-1,15,17,-1,-1,19,21,-1,-1,-1,-1,-1,-1,-1,-1],"loss_changes":[1.6685828E2,7.883148E1,3.0466179E1,4.287178E0,5.0090744E1,1.0245364E0,1.6033646E1,0E0,0E0,1.4967171E1,3.8080845E1,0E0,0E0,3.3078184E0,5.2852325E0,0E0,0E0,0E0,0E0,0E0,0E0,0E0,0E0],"parents":[2147483647,0,0,1,1,2,2,3,3,4,4,5,5,6,6,9,9,10,10,13,13,14,14],"right_children":[2,4,6,8,10,12,14,-1,-1,16,18,-1,-1,20,22,-1,-1,-1,-1,-1,-1,-1,-1],"split_conditions":[1E1,0E0,0E0,1E0,-1.9E1,6.666667E-2,0E0,-1.7816275E-2,-9.338013E-4,1E0,4E0,-8.333265E-3,-0E0,3.9E1,-1.6666667E-1,-1.1460712E-2,-0E0,-1.931046E-3,1.0386388E-2,-0E0,7.228208E-3,-0E0,1.5082421E-2],"split_indices":[5,9,9,13,10,18,13,0,0,13,30,0,0,10,18,0,0,0,0,0,0,0,0],"split_type":[0,0,0,0,0,0,0,0,0,0,0,0,0,0,0,0,0,0,0,0,0,0,0],"sum_hessian":[7.844192E2,5.2404083E2,2.6037833E2,1.1638805E2,4.076528E2,2.1409971E1,2.3896837E2,1.03951836E2,1.243621E1,1.470128E2,2.6063998E2,1.1345364E1,1.0064609E1,4.3123722E1,1.9584465E2,1.19234886E2,2.7777918E1,1.6257661E2,9.806338E1,2.6929384E1,1.6194336E1,1.3725111E1,1.8211954E2],"tree_param":{"num_deleted":"0","num_feature":"32","num_nodes":"23","size_leaf_vector":"1"}},{"base_weights":[-2.2906471E-2,-4.2897817E-1,5.575823E-1,-5.5841243E-1,6.280488E-1,-3.518451E-1,6.7387E-1,-6.454126E-1,1.7128818E-2,-0E0,1.2621984E-2,-8.754184E-3,-0E0,3.8224283E-1,1.621054E-2,-1.3064725E-2,-2.069423E-4,2.9988931E-3,1.4463233E-2],"categories":[],"categories_nodes":[],"categories_segments":[],"categories_sizes":[],"default_left":[0,0,0,0,0,0,0,0,0,0,0,0,0,0,0,0,0,0,0],"id":44,"left_children":[1,3,5,7,9,11,13,15,-1,-1,-1,-1,-1,17,-1,-1,-1,-1,-1],"loss_changes":[1.8704562E2,6.5131905E1,3.60205E1,6.017639E1,4.2697067E0,2.6693301E0,2.2462112E1,4.0562073E1,0E0,0E0,0E0,0E0,0E0,1.2312197E1,0E0,0E0,0E0,0E0,0E0],"parents":[2147483647,0,0,1,1,2,2,3,3,4,4,5,5,6,6,7,7,13,13],"right_children":[2,4,6,8,10,12,14,16,-1,-1,-1,-1,-1,18,-1,-1,-1,-1,-1],"split_conditions":[6E0,1E0,0E0,2.794E1,-9.3E-1,1.548969E2,2.1E1,2.6E1,1.7128818E-2,-0E0,1.2621984E-2,-8.754184E-3,-0E0,1E0,1.621054E-2,-1.3064725E-2,-2.069423E-4,2.9988931E-3,1.4463233E-2],"split_indices":[5,9,9,14,7,1,5,10,0,0,0,0,0,9,0,0,0,0,0],"split_type":[0,0,0,0,0,0,0,0,0,0,0,0,0,0,0,0,0,0,0],"sum_hessian":[7.9082385E2,4.6956396E2,3.212599E2,4.225616E2,4.700235E1,3.2144E1,2.891159E2,4.047092E2,1.7852432E1,1.1107186E1,3.589516E1,2.088715E1,1.1256852E1,1.6396269E2,1.25153206E2,3.1368146E2,9.102773E1,1.2695294E2,3.7009754E1],"tree_param":{"num_deleted":"0","num_feature":"32","num_nodes":"19","size_leaf_vector":"1"}},{"base_weights":[2.0674882E-3,-5.177358E-1,4.4024912E-1,-7.025026E-1,2.4026436E-1,-5.889078E-1,5.874916E-1,-8.1923395E-1,3.3293423E-1,-4.2752914E-2,5.7804596E-1,-1.3441468E-2,-0E0,-4.4340566E-2,7.375764E-1,-1.4227019E-2,6.1193584E-3,-0E0,9.106505E-3,-4.4946987E-3,-0E0,-0E0,1.5018212E-2,-7.787409E-3,5.7377648E-3,6.6102124E-3,1.551596E-2],"categories":[],"categories_nodes":[],"categories_segments":[],"categories_sizes":[],"default_left":[0,0,0,0,0,0,0,0,0,0,0,0,0,0,0,0,0,0,0,0,0,0,0,0,0,0,0],"id":45,"left_children":[1,3,5,7,9,11,13,15,17,19,21,-1,-1,23,25,-1,-1,-1,-1,-1,-1,-1,-1,-1,-1,-1,-1],"loss_changes":[1.8077405E2,5.2537415E1,6.6784874E1,3.802133E1,8.626962E0,8.289116E0,3.9269897E1,2.485173E1,2.386457E0,1.3211075E0,7.893691E0,0E0,0E0,1.3574032E1,1.7495834E1,0E0,0E0,0E0,0E0,0E0,0E0,0E0,0E0,0E0,0E0,0E0,0E0],"parents":[2147483647,0,0,1,1,2,2,3,3,4,4,5,5,6,6,7,7,8,8,9,9,10,10,13,13,14,14],"right_children":[2,4,6,8,10,12,14,16,18,20,22,-1,-1,24,26,-1,-1,-1,-1,-1,-1,-1,-1,-1,-1,-1,-1],"split_conditions":[0E0,1E0,0E0,1E0,1.5733333E2,1.5E1,0E0,2.032E1,1E0,-5E0,-5.8E-1,-1.3441468E-2,-0E0,5E0,1.2E1,-1.4227019E-2,6.1193584E-3,-0E0,9.106505E-3,-4.4946987E-3,-0E0,-0E0,1.5018212E-2,-7.787409E-3,5.7377648E-3,6.6102124E-3,1.551596E-2],"split_indices":[5,13,9,9,3,10,13,14,30,10,7,0,0,10,5,0,0,0,0,0,0,0,0,0,0,0,0],"split_type":[0,0,0,0,0,0,0,0,0,0,0,0,0,0,0,0,0,0,0,0,0,0,0,0,0,0,0],"sum_hessian":[7.9023834E2,3.5725983E2,4.3297852E2,2.9144467E2,6.5815155E1,5.0048088E1,3.8293042E2,2.6568576E2,2.575891E1,3.0767097E1,3.504806E1,3.524255E1,1.4805538E1,6.892376E1,3.1400665E2,2.5491795E2,1.0767819E1,1.1087069E1,1.4671841E1,1.5189842E1,1.5577256E1,1.4200177E1,2.0847883E1,3.716267E1,3.176109E1,1.4000916E2,1.7399751E2],"tree_param":{"num_deleted":"0","num_feature":"32","num_nodes":"27","size_leaf_vector":"1"}},{"base_weights":[1.0444973E-2,-4.3401423E-1,4.7681424E-1,-1.7955175E-2,-1.8947883E-1,2.7417386E-1,1.7580234E-2,-2.9828882E-1,1.9011E-2,-4.9387436E-2,7.3960334E-1,-1.1376743E-2,-6.697798E-5,-3.855412E-3,1.0106296E-2,1.3057755E-4,1.3803942E-2],"categories":[],"categories_nodes":[],"categories_segments":[],"categories_sizes":[],"default_left":[0,0,0,0,0,0,0,0,0,0,0,0,0,0,0,0,0],"id":46,"left_children":[1,3,5,-1,7,9,-1,11,-1,13,15,-1,-1,-1,-1,-1,-1],"loss_changes":[1.6411948E2,6.1774155E1,4.3081947E1,0E0,4.2729557E1,4.8195084E1,0E0,3.1748142E1,0E0,2.1685492E1,8.137894E0,0E0,0E0,0E0,0E0,0E0,0E0],"parents":[2147483647,0,0,1,1,2,2,4,4,5,5,7,7,9,9,10,10],"right_children":[2,4,6,-1,8,10,-1,12,-1,14,16,-1,-1,-1,-1,-1,-1],"split_conditions":[2E0,0E0,1E0,-1.7955175E-2,2.794E1,2.5E1,1.7580234E-2,-1.8E1,1.9011E-2,1E0,0E0,-1.1376743E-2,-6.697798E-5,-3.855412E-3,1.0106296E-2,1.3057755E-4,1.3803942E-2],"split_indices":[5,9,9,0,14,10,0,10,0,13,13,0,0,0,0,0,0],"split_type":[0,0,0,0,0,0,0,0,0,0,0,0,0,0,0,0,0],"sum_hessian":[7.862435E2,3.984576E2,3.877859E2,9.830477E1,3.0015283E2,2.9953387E2,8.825203E1,2.8245532E2,1.769752E1,1.7309152E2,1.26442345E2,1.1087109E2,1.7158421E2,1.406948E2,3.239673E1,2.2910976E1,1.0353137E2],"tree_param":{"num_deleted":"0","num_feature":"32","num_nodes":"17","size_leaf_vector":"1"}},{"base_weights":[8.840219E-3,-5.568977E-1,3.8578692E-1,-6.432251E-1,1.764842E-2,-5.4562515E-1,5.302075E-1,-7.9835343E-1,1.1832007E-2,-1.2058535E-2,-0E0,-1.3906562E-1,6.8860924E-1,-1.4695031E-2,4.5678066E-3,-2.364499E-3,8.872634E-3,-5.593618E-3,1.1393711E-2,5.6244945E-3,1.4825949E-2],"categories":[],"categories_nodes":[],"categories_segments":[],"categories_sizes":[],"default_left":[0,0,0,0,0,0,0,0,0,0,0,0,0,0,0,0,0,0,0,0,0],"id":47,"left_children":[1,3,5,7,-1,9,11,13,15,-1,-1,17,19,-1,-1,-1,-1,-1,-1,-1,-1],"loss_changes":[1.6921664E2,4.494361E1,6.547367E1,3.378483E1,0E0,7.710169E0,4.7083145E1,3.513353E1,6.5474286E0,0E0,0E0,1.3152631E1,2.2016449E1,0E0,0E0,0E0,0E0,0E0,0E0,0E0,0E0],"parents":[2147483647,0,0,1,1,2,2,3,3,5,5,6,6,7,7,8,8,11,11,12,12],"right_children":[2,4,6,8,-1,10,12,14,16,-1,-1,18,20,-1,-1,-1,-1,-1,-1,-1,-1],"split_conditions":[-3E0,2.54E1,0E0,1E0,1.764842E-2,1.5E1,0E0,1E0,3.1E1,-1.2058535E-2,-0E0,1.27E1,1E1,-1.4695031E-2,4.5678066E-3,-2.364499E-3,8.872634E-3,-5.593618E-3,1.1393711E-2,5.6244945E-3,1.4825949E-2],"split_indices":[5,14,9,13,0,10,13,9,10,0,0,14,5,0,0,0,0,0,0,0,0],"split_type":[0,0,0,0,0,0,0,0,0,0,0,0,0,0,0,0,0,0,0,0,0],"sum_hessian":[7.91819E2,3.1210577E2,4.7971323E2,3.0023615E2,1.1869624E1,5.995361E1,4.197596E2,2.4705733E2,5.317881E1,4.400407E1,1.5949537E1,7.5762276E1,3.4399734E2,2.2616478E2,2.089255E1,3.6962822E1,1.6215988E1,6.548524E1,1.02770405E1,1.5086877E2,1.9312856E2],"tree_param":{"num_deleted":"0","num_feature":"32","num_nodes":"21","size_leaf_vector":"1"}},{"base_weights":[-0E0,-5.1367754E-1,3.9510524E-1,-6.0106146E-1,1.4123352E-2,1.950398E-1,1.0681407E0,-6.9969827E-1,3.2071197E-1,-7.49354E-3,8.012226E-1,9.395856E-4,1.8375188E-2,-1.3743868E-2,-0E0,-0E0,9.83642E-3,-1.8419812E-3,1.7006822E-2,-0E0,1.3956887E-2],"categories":[],"categories_nodes":[],"categories_segments":[],"categories_sizes":[],"default_left":[0,0,0,0,0,0,0,0,0,0,0,0,0,0,0,0,0,0,0,0,0],"id":48,"left_children":[1,3,5,7,-1,9,11,13,15,17,19,-1,-1,-1,-1,-1,-1,-1,-1,-1,-1],"loss_changes":[1.6128046E2,4.2277252E1,5.519158E1,3.189067E1,0E0,4.6487232E1,3.011406E0,3.4198166E1,3.9022381E0,2.6849457E1,2.3015785E0,0E0,0E0,0E0,0E0,0E0,0E0,0E0,0E0,0E0,0E0],"parents":[2147483647,0,0,1,1,2,2,3,3,5,5,6,6,7,7,8,8,9,9,10,10],"right_children":[2,4,6,8,-1,10,12,14,16,18,20,-1,-1,-1,-1,-1,-1,-1,-1,-1,-1],"split_conditions":[-1E0,2.286E1,1E0,1E0,1.4123352E-2,1E0,0E0,1E0,0E0,2.54E1,-7.62E0,9.395856E-4,1.8375188E-2,-1.3743868E-2,-0E0,-0E0,9.83642E-3,-1.8419812E-3,1.7006822E-2,-0E0,1.3956887E-2],"split_indices":[5,14,9,9,0,13,13,13,30,14,14,0,0,0,0,0,0,0,0,0,0],"split_type":[0,0,0,0,0,0,0,0,0,0,0,0,0,0,0,0,0,0,0,0,0],"sum_hessian":[7.900438E2,3.4293274E2,4.4711108E2,3.2657138E2,1.636137E1,3.514005E2,9.571057E1,2.992726E2,2.7298748E1,2.6041446E2,9.0986046E1,1.0736524E1,8.4974045E1,2.4483151E2,5.4441105E1,1.1216019E1,1.608273E1,2.4180151E2,1.8612946E1,1.133358E1,7.965247E1],"tree_param":{"num_deleted":"0","num_feature":"32","num_nodes":"21","size_leaf_vector":"1"}},{"base_weights":[1.0738116E-2,-2.992213E-1,5.9669983E-1,-3.8846904E-1,1.8279308E-2,-0E0,7.025679E-1,-5.5553275E-1,2.7613828E-1,-2.9547352E-1,3.4030184E-1,4.5053506E-1,1.5242778E-2,-1.5326382E-2,-4.4362317E-3,-0E0,9.1254795E-3,-9.138429E-3,-0E0,8.128804E-3,-0E0,-0E0,8.692112E-3],"categories":[],"categories_nodes":[],"categories_segments":[],"categories_sizes":[],"default_left":[0,0,0,0,0,0,0,0,0,0,0,0,0,0,0,0,0,0,0,0,0,0,0],"id":49,"left_children":[1,3,5,7,-1,9,11,13,15,17,19,21,-1,-1,-1,-1,-1,-1,-1,-1,-1,-1,-1],"loss_changes":[1.4393811E2,6.3713524E1,1.580275E1,5.5229416E1,0E0,5.103694E0,8.115425E0,3.8515694E1,8.146617E0,2.0773554E0,1.0496128E0,6.917263E0,0E0,0E0,0E0,0E0,0E0,0E0,0E0,0E0,0E0,0E0,0E0],"parents":[2147483647,0,0,1,1,2,2,3,3,5,5,6,6,7,7,8,8,9,9,10,10,11,11],"right_children":[2,4,6,8,-1,10,12,14,16,18,20,22,-1,-1,-1,-1,-1,-1,-1,-1,-1,-1,-1],"split_conditions":[9E0,3.302E1,0E0,1E0,1.8279308E-2,0E0,2.2E1,-1.1E1,-2.4E-1,1E0,1.6098562E0,-6.666667E-2,1.5242778E-2,-1.5326382E-2,-4.4362317E-3,-0E0,9.1254795E-3,-9.138429E-3,-0E0,8.128804E-3,-0E0,-0E0,8.692112E-3],"split_indices":[5,14,13,13,0,14,5,5,7,17,16,18,0,0,0,0,0,0,0,0,0,0,0],"split_type":[0,0,0,0,0,0,0,0,0,0,0,0,0,0,0,0,0,0,0,0,0,0,0],"sum_hessian":[7.8153345E2,5.076318E2,2.7390164E2,4.8214017E2,2.5491648E1,4.4972626E1,2.2892902E2,3.9020502E2,9.193515E1,2.0545612E1,2.4427013E1,1.24666214E2,1.04262794E2,1.5199232E2,2.3821269E2,4.701763E1,4.4917515E1,1.0167767E1,1.0377846E1,1.3766158E1,1.0660856E1,1.5904992E1,1.0876122E2],"tree_param":{"num_deleted":"0","num_feature":"32","num_nodes":"23","size_leaf_vector":"1"}},{"base_weights":[1.8985366E-2,-4.5887986E-1,4.2614338E-1,-6.5266484E-1,2.0907365E-1,-5.1773226E-1,5.58471E-1,-7.696902E-1,2.8537968E-1,-2.1948901E-1,5.530811E-1,-1.1829646E-2,-0E0,3.302254E-2,7.6260084E-1,-1.443676E-2,-1.2461988E-4,-0E0,9.294529E-3,-0E0,-7.112587E-3,-0E0,1.3039464E-2,-6.0223388E-3,5.1676463E-3,-0E0,1.3275793E-2],"categories":[],"categories_nodes":[],"categories_segments":[],"categories_sizes":[],"default_left":[0,0,0,0,0,0,0,0,0,1,0,0,0,0,0,0,0,0,0,0,0,0,0,0,0,0,0],"id":50,"left_children":[1,3,5,7,9,11,13,15,17,19,21,-1,-1,23,25,-1,-1,-1,-1,-1,-1,-1,-1,-1,-1,-1,-1],"loss_changes":[1.5140047E2,4.784388E1,5.389554E1,3.304789E1,1.2910836E1,6.8966703E0,3.7356064E1,2.1783112E1,3.9252868E0,1.6636448E0,7.818307E0,0E0,0E0,1.3490707E1,1.3037903E1,0E0,0E0,0E0,0E0,0E0,0E0,0E0,0E0,0E0,0E0,0E0,0E0],"parents":[2147483647,0,0,1,1,2,2,3,3,4,4,5,5,6,6,7,7,8,8,9,9,10,10,13,13,14,14],"right_children":[2,4,6,8,10,12,14,16,18,20,22,-1,-1,24,26,-1,-1,-1,-1,-1,-1,-1,-1,-1,-1,-1,-1],"split_conditions":[0E0,2.8E1,0E0,1E0,-6.8E-1,2.3E1,-5E0,1E0,0E0,-1.4484E2,-2E0,-1.1829646E-2,-0E0,-1E0,-1.73E0,-1.443676E-2,-1.2461988E-4,-0E0,9.294529E-3,-0E0,-7.112587E-3,-0E0,1.3039464E-2,-6.0223388E-3,5.1676463E-3,-0E0,1.3275793E-2],"split_indices":[5,10,9,9,7,10,10,13,10,1,30,0,0,30,7,0,0,0,0,0,0,0,0,0,0,0,0],"split_type":[0,0,0,0,0,0,0,0,0,0,0,0,0,0,0,0,0,0,0,0,0,0,0,0,0,0,0],"sum_hessian":[7.740361E2,3.5163202E2,4.2240402E2,2.7704462E2,7.458743E1,4.7530746E1,3.748733E2,2.5032365E2,2.6720957E1,2.86365E1,4.595093E1,3.4822975E1,1.2707768E1,1.1090597E2,2.6396732E2,2.088687E2,4.145495E1,1.0383439E1,1.6337517E1,1.4981938E1,1.3654562E1,1.4195222E1,3.1755709E1,4.0196125E1,7.070984E1,2.1713297E1,2.4225403E2],"tree_param":{"num_deleted":"0","num_feature":"32","num_nodes":"27","size_leaf_vector":"1"}},{"base_weights":[-1.6442062E-2,-9.354763E-1,1.8114884E-1,-1.0366149E0,-0E0,-5.728141E-2,7.783245E-1,-1.8446784E-2,-4.6192414E-1,-4.6572548E-1,2.4679309E-1,1.1758033E-1,8.8405097E-1,-1.026777E-2,-0E0,-9.667264E-3,1.3950228E-3,-5.569494E-3,7.0112664E-3,-0E0,6.1197886E-3,4.84581E-3,1.588494E-2],"categories":[],"categories_nodes":[],"categories_segments":[],"categories_sizes":[],"default_left":[0,0,0,0,0,0,0,0,0,0,0,0,0,0,0,0,0,0,0,0,0,0,0],"id":51,"left_children":[1,3,5,7,-1,9,11,-1,13,15,17,19,21,-1,-1,-1,-1,-1,-1,-1,-1,-1,-1],"loss_changes":[1.434629E2,9.673561E0,9.3120384E1,6.885681E-1,0E0,5.707726E1,8.884117E0,0E0,1.7948494E0,1.7201458E1,2.9563038E1,2.484432E0,3.9882278E0,0E0,0E0,0E0,0E0,0E0,0E0,0E0,0E0,0E0,0E0],"parents":[2147483647,0,0,1,1,2,2,3,3,5,5,6,6,8,8,9,9,10,10,11,11,12,12],"right_children":[2,4,6,8,-1,10,12,-1,14,16,18,20,22,-1,-1,-1,-1,-1,-1,-1,-1,-1,-1],"split_conditions":[0E0,1E0,1.4E1,3E0,-0E0,0E0,0E0,-1.8446784E-2,4E0,4.5E1,-4E1,0E0,-1E1,-1.026777E-2,-0E0,-9.667264E-3,1.3950228E-3,-5.569494E-3,7.0112664E-3,-0E0,6.1197886E-3,4.84581E-3,1.588494E-2],"split_indices":[9,13,5,10,0,30,13,0,5,10,10,14,10,0,0,0,0,0,0,0,0,0,0],"split_type":[0,0,0,0,0,0,0,0,0,0,0,0,0,0,0,0,0,0,0,0,0,0,0],"sum_hessian":[7.695361E2,1.3803659E2,6.314995E2,1.20977684E2,1.7058905E1,4.482559E2,1.832436E2,9.331998E1,2.7657707E1,1.9613544E2,2.5212044E2,3.0963558E1,1.5228004E2,1.7604216E1,1.0053492E1,1.624165E2,3.3718937E1,5.5909172E1,1.9621127E2,1.3142265E1,1.7821293E1,3.0690458E1,1.21589584E2],"tree_param":{"num_deleted":"0","num_feature":"32","num_nodes":"23","size_leaf_vector":"1"}},{"base_weights":[7.2124503E-3,-2.9831296E-1,5.974044E-1,-9.656418E-1,-9.743391E-2,-2.8950068E-1,7.089061E-1,-1.7135376E-2,-0E0,-4.8220885E-1,1.976704E-1,-8.167884E-3,-0E0,3.883044E-2,8.32108E-1,5.016265E-4,-9.70444E-3,-6.122925E-3,6.726294E-3,4.7139856E-3,-2.4913335E-3,1.0923219E-3,1.4670424E-2],"categories":[],"categories_nodes":[],"categories_segments":[],"categories_sizes":[],"default_left":[0,0,0,0,0,0,0,0,0,0,0,0,0,1,0,0,0,0,0,0,0,0,0],"id":52,"left_children":[1,3,5,7,9,11,13,-1,-1,15,17,-1,-1,19,21,-1,-1,-1,-1,-1,-1,-1,-1],"loss_changes":[1.4163037E2,6.395284E1,2.8794289E1,9.935677E0,4.6549026E1,2.2693644E0,1.6762482E1,0E0,0E0,1.360619E1,2.9049534E1,0E0,0E0,2.8858669E0,8.93219E0,0E0,0E0,0E0,0E0,0E0,0E0,0E0,0E0],"parents":[2147483647,0,0,1,1,2,2,3,3,4,4,5,5,6,6,9,9,10,10,13,13,14,14],"right_children":[2,4,6,8,10,12,14,-1,-1,16,18,-1,-1,20,22,-1,-1,-1,-1,-1,-1,-1,-1],"split_conditions":[9E0,0E0,0E0,1E0,0E0,1.4203767E1,0E0,-1.7135376E-2,-0E0,-4.588638E0,-3.7E1,-8.167884E-3,-0E0,-7.945E0,-4E1,5.016265E-4,-9.70444E-3,-6.122925E-3,6.726294E-3,4.7139856E-3,-2.4913335E-3,1.0923219E-3,1.4670424E-2],"split_indices":[5,9,9,13,30,0,13,0,0,16,10,0,0,2,10,0,0,0,0,0,0,0,0],"split_type":[0,0,0,0,0,0,0,0,0,0,0,0,0,0,0,0,0,0,0,0,0,0,0],"sum_hessian":[7.7438184E2,5.0673962E2,2.6764218E2,1.1074727E2,3.9599237E2,2.5631765E1,2.4201042E2,9.8546906E1,1.2200364E1,1.7686334E2,2.1912903E2,1.5395414E1,1.023635E1,4.2897903E1,1.9911252E2,2.8606253E1,1.4825708E2,5.5446033E1,1.6368298E2,2.6527494E1,1.6370409E1,2.4556376E1,1.7455614E2],"tree_param":{"num_deleted":"0","num_feature":"32","num_nodes":"23","size_leaf_vector":"1"}},{"base_weights":[-0E0,-8.995991E-1,1.9211476E-1,-9.989793E-1,-0E0,-2.9155758E-1,4.6439862E-1,-1.8048733E-2,-3.9385894E-1,-3.9328653E-1,1.3028089E-2,2.78451E-1,1.670226E-2,-1.0404907E-2,-0E0,-8.730642E-3,2.1172266E-3,-1.7602922E-3,9.786874E-3],"categories":[],"categories_nodes":[],"categories_segments":[],"categories_sizes":[],"default_left":[0,0,0,0,0,0,0,0,0,0,0,0,0,0,0,0,0,0,0],"id":53,"left_children":[1,3,5,7,-1,9,11,-1,13,15,-1,17,-1,-1,-1,-1,-1,-1,-1],"loss_changes":[1.3698282E2,9.653168E0,8.541698E1,2.6289825E0,0E0,2.4693907E1,3.8983162E1,0E0,3.6629605E0,1.8710052E1,0E0,4.3778297E1,0E0,0E0,0E0,0E0,0E0,0E0,0E0],"parents":[2147483647,0,0,1,1,2,2,3,3,5,5,6,6,8,8,9,9,11,11],"right_children":[2,4,6,8,-1,10,12,-1,14,16,-1,18,-1,-1,-1,-1,-1,-1,-1],"split_conditions":[0E0,1E0,-6E0,3E0,-0E0,2.286E1,1E0,-1.8048733E-2,-8E-2,1E0,1.3028089E-2,2.6E1,1.670226E-2,-1.0404907E-2,-0E0,-8.730642E-3,2.1172266E-3,-1.7602922E-3,9.786874E-3],"split_indices":[9,13,10,10,0,14,9,0,7,13,0,10,0,0,0,0,0,0,0],"split_type":[0,0,0,0,0,0,0,0,0,0,0,0,0,0,0,0,0,0,0],"sum_hessian":[7.7641675E2,1.3765681E2,6.387599E2,1.2085547E2,1.6801353E1,2.2494481E2,4.138151E2,9.2916916E1,2.7938553E1,2.105477E2,1.4397112E1,3.2075864E2,9.305646E1,1.7466887E1,1.0471666E1,1.6899258E2,4.1555115E1,1.4334158E2,1.7741705E2],"tree_param":{"num_deleted":"0","num_feature":"32","num_nodes":"19","size_leaf_vector":"1"}},{"base_weights":[-1.5245872E-2,-3.6414424E-1,4.9500874E-1,-4.5955232E-1,1.7415842E-2,-4.330135E-1,6.102851E-1,-5.8555555E-1,5.473392E-1,-1.0405206E-2,-0E0,4.1397148E-1,1.7689338E-2,-1.6796412E-2,-6.487825E-3,-0E0,1.1499129E-2,2.2224605E-3,1.2258366E-2],"categories":[],"categories_nodes":[],"categories_segments":[],"categories_sizes":[],"default_left":[0,0,0,0,0,0,0,0,0,0,0,0,0,0,0,0,0,0,0],"id":54,"left_children":[1,3,5,7,-1,9,11,13,15,-1,-1,17,-1,-1,-1,-1,-1,-1,-1],"loss_changes":[1.3670927E2,6.276035E1,3.4314636E1,5.644593E1,0E0,2.9051418E0,2.0156334E1,2.6329636E1,4.42562E0,0E0,0E0,1.6489777E1,0E0,0E0,0E0,0E0,0E0,0E0,0E0],"parents":[2147483647,0,0,1,1,2,2,3,3,5,5,6,6,7,7,8,8,11,11],"right_children":[2,4,6,8,-1,10,12,14,16,-1,-1,18,-1,-1,-1,-1,-1,-1,-1],"split_conditions":[6E0,2.286E1,0E0,1E0,1.7415842E-2,1.5040567E2,1E0,0E0,-4E0,-1.0405206E-2,-0E0,2.1E1,1.7689338E-2,-1.6796412E-2,-6.487825E-3,-0E0,1.1499129E-2,2.2224605E-3,1.2258366E-2],"split_indices":[5,14,9,9,0,2,9,9,30,0,0,5,0,0,0,0,0,0,0],"split_type":[0,0,0,0,0,0,0,0,0,0,0,0,0,0,0,0,0,0,0],"sum_hessian":[7.6596063E2,4.5976797E2,3.0619266E2,4.3539853E2,2.4369444E1,2.9439411E1,2.7675323E2,3.9123422E2,4.4164307E1,1.8662868E1,1.0776541E1,2.0668234E2,7.007091E1,1.0070869E2,2.9052554E2,1.08734255E1,3.329088E1,1.2381541E2,8.2866936E1],"tree_param":{"num_deleted":"0","num_feature":"32","num_nodes":"19","size_leaf_vector":"1"}},{"base_weights":[4.3749167E-3,-2.9385933E-1,6.240611E-1,-4.7480962E-1,4.00933E-1,-2.0186688E-1,7.197234E-1,-6.385086E-1,6.389598E-1,-0E0,7.287597E-1,-8.386876E-3,-0E0,5.7509005E-2,8.3950126E-1,-1.1305507E-2,1.1988839E-2,-0E0,1.2501445E-2,-4.5860987E-3,4.660398E-3,-0E0,1.4879853E-2,4.509658E-3,-9.572393E-4,5.9062624E-3,1.4901055E-2],"categories":[],"categories_nodes":[],"categories_segments":[],"categories_sizes":[],"default_left":[0,0,0,0,0,0,0,0,0,0,0,0,0,0,0,0,0,0,0,0,0,0,0,0,0,0,0],"id":55,"left_children":[1,3,5,7,9,11,13,15,17,19,21,-1,-1,23,25,-1,-1,-1,-1,-1,-1,-1,-1,-1,-1,-1,-1],"loss_changes":[1.4309407E2,6.534791E1,2.2357079E1,7.630153E1,1.2900131E1,2.5434108E0,1.4841438E1,3.4981125E1,3.7634258E0,4.3617783E0,6.723774E0,0E0,0E0,2.0168347E0,2.363327E0,0E0,0E0,0E0,0E0,0E0,0E0,0E0,0E0,0E0,0E0,0E0,0E0],"parents":[2147483647,0,0,1,1,2,2,3,3,4,4,5,5,6,6,7,7,8,8,9,9,10,10,13,13,14,14],"right_children":[2,4,6,8,10,12,14,16,18,20,22,-1,-1,24,26,-1,-1,-1,-1,-1,-1,-1,-1,-1,-1,-1,-1],"split_conditions":[1E1,1E0,0E0,1E0,2E0,0E0,0E0,2.286E1,-4E0,1.54E2,-8.027104E0,-8.386876E-3,-0E0,2.9815195E0,-4E0,-1.1305507E-2,1.1988839E-2,-0E0,1.2501445E-2,-4.5860987E-3,4.660398E-3,-0E0,1.4879853E-2,4.509658E-3,-9.572393E-4,5.9062624E-3,1.4901055E-2],"split_indices":[5,13,9,9,30,14,13,14,30,4,1,0,0,16,30,0,0,0,0,0,0,0,0,0,0,0,0],"split_type":[0,0,0,0,0,0,0,0,0,0,0,0,0,0,0,0,0,0,0,0,0,0,0,0,0,0,0],"sum_hessian":[7.62707E2,5.1157047E2,2.5113652E2,4.108357E2,1.0073479E2,2.1639507E1,2.2949701E2,3.620693E2,4.8766384E1,4.760716E1,5.3127632E1,1.0485364E1,1.1154142E1,4.0586845E1,1.8891017E2,3.4911084E2,1.295845E1,1.0657123E1,3.8109264E1,2.246474E1,2.5142416E1,1.3523147E1,3.9604485E1,2.4032896E1,1.6553947E1,3.920533E1,1.4970483E2],"tree_param":{"num_deleted":"0","num_feature":"32","num_nodes":"27","size_leaf_vector":"1"}},{"base_weights":[-5.423668E-3,-6.319106E-1,2.5920236E-1,-7.9397106E-1,-0E0,7.82628E-2,9.747255E-1,-8.963597E-1,2.3606753E-3,-5.4656463E-3,3.7132624E-1,-2.0209247E-1,6.034925E-1,5.247575E-4,1.6847799E-2,-1.5595334E-2,-0E0,-0E0,9.456166E-3,-5.934849E-3,6.383943E-3,-0E0,1.199888E-2],"categories":[],"categories_nodes":[],"categories_segments":[],"categories_sizes":[],"default_left":[0,0,0,0,0,0,0,0,0,0,0,0,0,0,0,0,0,0,0,0,0,0,0],"id":56,"left_children":[1,3,5,7,9,11,13,15,-1,-1,17,19,21,-1,-1,-1,-1,-1,-1,-1,-1,-1,-1],"loss_changes":[1.3067851E2,2.6887398E1,6.619644E1,2.1688553E1,6.2507696E0,6.675321E1,3.3773117E0,1.3074707E1,0E0,0E0,1.8993478E0,2.8995605E1,1.3704315E1,0E0,0E0,0E0,0E0,0E0,0E0,0E0,0E0,0E0,0E0],"parents":[2147483647,0,0,1,1,2,2,3,3,4,4,5,5,6,6,7,7,10,10,11,11,12,12],"right_children":[2,4,6,8,10,12,14,16,-1,-1,18,20,22,-1,-1,-1,-1,-1,-1,-1,-1,-1,-1],"split_conditions":[-8E0,1E0,1E0,1E0,2.2291956E1,2.8E1,0E0,6E1,2.3606753E-3,-5.4656463E-3,-1.1E1,1E0,0E0,5.247575E-4,1.6847799E-2,-1.5595334E-2,-0E0,-0E0,9.456166E-3,-5.934849E-3,6.383943E-3,-0E0,1.199888E-2],"split_indices":[5,13,9,9,1,10,13,10,0,0,10,13,13,0,0,0,0,0,0,0,0,0,0],"split_type":[0,0,0,0,0,0,0,0,0,0,0,0,0,0,0,0,0,0,0,0,0,0,0],"sum_hessian":[7.7492194E2,2.3344324E2,5.414787E2,1.8965466E2,4.3788586E1,4.3855814E2,1.02920555E2,1.7482065E2,1.4834002E1,1.8082253E1,2.5706331E1,2.821296E2,1.5642851E2,1.1767464E1,9.115309E1,1.6171504E2,1.310561E1,1.1507228E1,1.4199103E1,2.2605956E2,5.607007E1,3.1225758E1,1.2520275E2],"tree_param":{"num_deleted":"0","num_feature":"32","num_nodes":"23","size_leaf_vector":"1"}},{"base_weights":[6.736968E-4,-8.819662E-1,1.9411938E-1,-1.588454E-2,-0E0,2.1370085E-2,8.7555087E-1,-2.5928572E-1,5.813832E-1,-0E0,9.6807295E-1,-5.5893855E-3,1.6072854E-2,-0E0,1.1830259E-2,7.9053536E-4,1.6398719E-2],"categories":[],"categories_nodes":[],"categories_segments":[],"categories_sizes":[],"default_left":[0,0,0,0,0,0,0,0,0,0,0,0,0,0,0,0,0],"id":57,"left_children":[1,3,5,-1,-1,7,9,11,13,-1,15,-1,-1,-1,-1,-1,-1],"loss_changes":[1.2816054E2,1.0733101E1,7.0903244E1,0E0,0E0,8.190504E1,6.9789124E0,3.647363E1,1.6659943E1,0E0,1.2788849E0,0E0,0E0,0E0,0E0,0E0,0E0],"parents":[2147483647,0,0,1,1,2,2,5,5,6,6,7,7,8,8,10,10],"right_children":[2,4,6,-1,-1,8,10,12,14,-1,16,-1,-1,-1,-1,-1,-1],"split_conditions":[0E0,1E0,1E0,-1.588454E-2,-0E0,2.6E1,0E0,2.286E1,0E0,-0E0,-1.47E0,-5.5893855E-3,1.6072854E-2,-0E0,1.1830259E-2,7.9053536E-4,1.6398719E-2],"split_indices":[9,13,9,0,0,10,13,14,13,0,7,0,0,0,0,0,0],"split_type":[0,0,0,0,0,0,0,0,0,0,0,0,0,0,0,0,0],"sum_hessian":[7.6128986E2,1.3178055E2,6.2950934E2,1.14730965E2,1.7049585E1,5.0863052E2,1.20878815E2,3.3511682E2,1.7351369E2,1.4985858E1,1.0589296E2,3.1735382E2,1.7762985E1,3.626391E1,1.3724979E2,1.0205383E1,9.568758E1],"tree_param":{"num_deleted":"0","num_feature":"32","num_nodes":"17","size_leaf_vector":"1"}},{"base_weights":[2.7708067E-3,-8.6964035E-1,1.9623917E-1,-1.565283E-2,-0E0,-4.8598287E-1,3.915285E-1,-7.080846E-1,1.7486106E-1,2.2314616E-1,9.626427E-1,-1.2813315E-2,-0E0,-9.263475E-4,9.016947E-3,-5.823134E-4,1.2780893E-2,3.465865E-3,1.7019896E-2],"categories":[],"categories_nodes":[],"categories_segments":[],"categories_sizes":[],"default_left":[0,0,0,0,0,0,0,0,0,0,0,0,0,0,0,0,0,0,0],"id":58,"left_children":[1,3,5,-1,-1,7,9,11,13,15,17,-1,-1,-1,-1,-1,-1,-1,-1],"loss_changes":[1.2441858E2,9.845703E0,8.261469E1,0E0,0E0,2.2083138E1,4.1805763E1,7.4927864E0,4.8453717E0,6.0314262E1,2.3654022E0,0E0,0E0,0E0,0E0,0E0,0E0,0E0,0E0],"parents":[2147483647,0,0,1,1,2,2,5,5,6,6,7,7,8,8,9,9,10,10],"right_children":[2,4,6,-1,-1,8,10,12,14,16,18,-1,-1,-1,-1,-1,-1,-1,-1],"split_conditions":[0E0,1E0,-1.1E1,-1.565283E-2,-0E0,1E0,1E0,1E0,-5.4E-1,3.5E1,-5E0,-1.2813315E-2,-0E0,-9.263475E-4,9.016947E-3,-5.823134E-4,1.2780893E-2,3.465865E-3,1.7019896E-2],"split_indices":[9,13,5,0,0,13,9,9,7,10,30,0,0,0,0,0,0,0,0],"split_type":[0,0,0,0,0,0,0,0,0,0,0,0,0,0,0,0,0,0,0],"sum_hessian":[7.476628E2,1.3061255E2,6.1705023E2,1.13333084E2,1.7279474E1,1.3217459E2,4.8487564E2,1.03137474E2,2.903712E1,3.821938E2,1.0268186E2,9.206981E1,1.1067669E1,1.3238245E1,1.5798876E1,2.60215E2,1.21978775E2,1.7498297E1,8.518356E1],"tree_param":{"num_deleted":"0","num_feature":"32","num_nodes":"19","size_leaf_vector":"1"}},{"base_weights":[-1.9080471E-2,-6.430654E-1,2.4387616E-1,-7.337061E-1,1.1269374E-2,6.780863E-2,9.383686E-1,-8.6718065E-1,-4.0160332E-2,-1.2511064E-1,6.796816E-1,-0E0,1.6533036E-2,-1.5260839E-2,-0E0,-6.1752195E-3,1.9641465E-3,-8.054405E-3,2.6265043E-3,1.192092E-2,-0E0],"categories":[],"categories_nodes":[],"categories_segments":[],"categories_sizes":[],"default_left":[0,0,0,0,0,0,0,0,0,0,0,0,0,0,0,0,0,0,0,0,0],"id":59,"left_children":[1,3,5,7,-1,9,11,13,15,17,19,-1,-1,-1,-1,-1,-1,-1,-1,-1,-1],"loss_changes":[1.27610855E2,2.9665497E1,6.158585E1,1.6928162E1,0E0,5.3658527E1,6.3899536E0,1.5620407E1,3.5248957E0,3.7272053E1,4.442688E0,0E0,0E0,0E0,0E0,0E0,0E0,0E0,0E0,0E0,0E0],"parents":[2147483647,0,0,1,1,2,2,3,3,